Objects
100
,,Global Angle (Quaternion) nb01b:nb01b,,,,,,,Global Angle (Quaternion) nb02b:nb02b,,,,,,,Global Angle (Quaternion) nb04:ID,,,,,,,Global Angle (Quaternion) nb05:ID,,,,,,,Global Angle (Quaternion) nb08:ID,,,,,,,Global Angle (Quaternion) nb10b:nb10b,,,,,,,Global Angle (Quaternion) nb15b:nb15b,,,,,,,Global Angle (Quaternion) nb17b:nb17b,,,,,,,Global Angle (Quaternion) nb19:ID,,,,,,,Global Angle (Quaternion) nb20:ID,,,,,,,
Frame,Sub Frame,RX,RY,RZ,RW,TX,TY,TZ,RX,RY,RZ,RW,TX,TY,TZ,RX,RY,RZ,RW,TX,TY,TZ,RX,RY,RZ,RW,TX,TY,TZ,RX,RY,RZ,RW,TX,TY,TZ,RX,RY,RZ,RW,TX,TY,TZ,RX,RY,RZ,RW,TX,TY,TZ,RX,RY,RZ,RW,TX,TY,TZ,RX,RY,RZ,RW,TX,TY,TZ,RX,RY,RZ,RW,TX,TY,TZ
,,,,,,mm,mm,mm,,,,,mm,mm,mm,,,,,mm,mm,mm,,,,,mm,mm,mm,,,,,mm,mm,mm,,,,,mm,mm,mm,,,,,mm,mm,mm,,,,,mm,mm,mm,,,,,mm,mm,mm,,,,,mm,mm,mm
1011,0,,,,,,,,,,,,,,,-0.346965,-0.233351,-0.292264,0.860084,718.869,-5578.64,1649.39,-0.0183616,-0.420514,-0.186194,0.887785,787.084,-5445.72,1616.89,,,,,,,,,,,,,,,-0.328775,-0.563722,-0.447026,0.611794,-341.291,-5920.78,1719.41,0.313212,-0.912636,0.259486,-0.0407502,-88.8221,-6081.94,1688.5,-0.0691072,-0.297062,-0.781684,0.544011,-427.544,-6176.08,1717.88,-0.160452,-0.337678,-0.518508,0.769011,562.241,-5799.77,1708.01
1012,0,,,,,,,,,,,,,,,-0.347368,-0.234285,-0.291714,0.859854,718.855,-5578.61,1649.38,-0.0452158,-0.404158,-0.192846,0.892985,787.298,-5447.1,1615.28,,,,,,,,,,,,,,,-0.330355,-0.565707,-0.439775,0.614361,-341.176,-5921.06,1719.11,0.312865,-0.912225,0.261255,-0.0413035,-88.8966,-6082.05,1688.77,-0.0703444,-0.293773,-0.784403,0.541721,-427.322,-6176.01,1718.45,-0.160328,-0.339331,-0.514883,0.770743,562.946,-5799.95,1708.56
1013,0,,,,,,,,,,,,,,,-0.34765,-0.235112,-0.290915,0.859785,718.768,-5578.61,1649.27,-0.0398988,-0.396469,-0.201023,0.89488,787.232,-5447.64,1613.95,,,,,,,,,,,,,,,-0.329322,-0.564898,-0.434961,0.619069,-340.869,-5921.26,1718.9,0.3119,-0.911429,0.265055,-0.0419693,-88.8914,-6081.97,1688.86,-0.0728664,-0.292583,-0.784096,0.542475,-427.217,-6176.06,1718.95,-0.162569,-0.339055,-0.510996,0.772979,563.003,-5800,1708.57
1014,0,,,,,,,,0.637555,-0.216798,0.680412,0.289071,-344.067,-5715.15,1684.65,-0.347875,-0.236094,-0.290147,0.859684,718.764,-5578.61,1649.23,-0.0380145,-0.375783,-0.200747,0.903904,787.885,-5447.83,1613.72,0.291016,0.408288,0.777601,-0.379403,333.116,-5943.5,1691.83,,,,,,,,-0.332465,-0.561675,-0.428372,0.624889,-340.369,-5921.42,1718.87,0.312286,-0.910457,0.268044,-0.0411966,-88.4069,-6082.39,1688.97,-0.0765047,-0.291633,-0.781825,0.545753,-427.198,-6176.07,1719.39,-0.167189,-0.344471,-0.499696,0.776976,562.609,-5799.86,1708.24
1015,0,,,,,,,,0.626647,-0.227443,0.689331,0.28356,-345.676,-5717.57,1684.83,-0.348179,-0.236086,-0.288965,0.859962,718.757,-5578.6,1649.17,-0.031461,-0.3701,-0.213279,0.903631,788.107,-5447.24,1612.77,0.270724,0.419878,0.780665,-0.375464,334.32,-5944.43,1690.86,,,,,,,,-0.3333,-0.559252,-0.426353,0.62799,-339.815,-5921.54,1718.77,0.31467,-0.90938,0.26901,-0.0405518,-88.0309,-6082.47,1689.05,-0.0804993,-0.289856,-0.779267,0.549769,-427.023,-6176.11,1719.84,-0.170097,-0.34305,-0.495883,0.779413,562.943,-5800.13,1708.3
1016,0,,,,,,,,0.604138,-0.240969,0.707475,0.276461,-346.031,-5721.73,1683.26,-0.34855,-0.235941,-0.287761,0.860255,718.77,-5578.55,1649.08,-0.0218402,-0.373781,-0.215016,0.901986,788.579,-5448.31,1612.09,,,,,,,,,,,,,,,-0.329782,-0.556587,-0.426429,0.632149,-339.28,-5921.51,1718.71,0.315296,-0.908684,0.270673,-0.040207,-87.7583,-6082.51,1689.12,-0.0822924,-0.287791,-0.778049,0.552308,-426.909,-6176.14,1720.33,-0.172579,-0.341935,-0.492648,0.781406,562.995,-5800.18,1708.34
1017,0,-0.108375,-0.339384,-0.293476,0.887099,-35.8028,-5353.1,1630.5,0.596496,-0.229415,0.723607,0.260681,-347.01,-5727.09,1682.41,-0.351475,-0.236339,-0.279002,0.861839,718.753,-5578.5,1648.98,-0.027071,-0.350863,-0.21346,0.911371,788.603,-5448.68,1611.43,,,,,,,,,,,,,,,-0.330106,-0.55603,-0.421754,0.635597,-338.952,-5921.74,1718.6,0.721487,-0.633808,0.191765,0.20241,-88.1691,-6083.81,1690.17,-0.0800998,-0.287161,-0.781994,0.547365,-426.918,-6176.06,1720.63,-0.172956,-0.342967,-0.49045,0.782252,562.992,-5800.24,1708.29
1018,0,-0.107145,-0.345013,-0.2948,0.884635,-35.7881,-5353.12,1630.21,0.604007,-0.212191,0.72716,0.247769,-349.102,-5728.43,1685.84,-0.351174,-0.232096,-0.279236,0.863038,718.904,-5578.46,1649,-0.025081,-0.344936,-0.220699,0.911966,789.74,-5450.03,1611.58,,,,,,,,,,,,,,,-0.327132,-0.555818,-0.419163,0.639026,-338.762,-5921.75,1718.48,0.723396,-0.630215,0.195436,0.203302,-87.9412,-6083.66,1690.3,-0.0810731,-0.28409,-0.783212,0.547082,-426.783,-6176.11,1721.06,-0.174247,-0.343336,-0.488124,0.783258,562.954,-5800.2,1708.23
1019,0,-0.106331,-0.34953,-0.296414,0.882418,-35.3325,-5353.18,1630.35,0.624007,-0.205867,0.710484,0.251886,-348.906,-5726.78,1688.36,-0.351754,-0.232463,-0.278633,0.862898,718.939,-5578.42,1648.94,-0.0271038,-0.351577,-0.227413,0.907713,789.249,-5450.22,1610.8,,,,,,,,,,,,,,,-0.331392,-0.551197,-0.419382,0.640687,-338.287,-5921.6,1718.46,0.725584,-0.626445,0.196058,0.206533,-87.5404,-6083.68,1690.15,-0.082639,-0.282211,-0.782631,0.54865,-426.773,-6176.1,1721.42,-0.176507,-0.342056,-0.485283,0.785076,563.179,-5800.21,1708.33
1020,0,-0.105575,-0.353428,-0.297991,0.880422,-35.6525,-5353.03,1630.24,0.670835,-0.130167,0.680949,0.263336,-346.465,-5722.02,1690.18,-0.352425,-0.230154,-0.277709,0.863541,719.194,-5578.38,1649.09,-0.0204568,-0.350715,-0.229794,0.907621,789.346,-5450.71,1610.64,,,,,,,,,,,,,,,-0.299081,-0.549695,-0.454338,0.634005,-338.522,-5922.06,1719.12,0.727358,-0.623983,0.196418,0.207402,-87.467,-6083.43,1690.25,-0.0827689,-0.278812,-0.781723,0.551655,-426.855,-6176.24,1721.9,-0.182968,-0.347589,-0.470314,0.790259,562.898,-5799.99,1708.11
1021,0,-0.0925135,-0.383013,-0.297621,0.869577,-34.9554,-5352.57,1630.92,0.692773,-0.108685,0.658514,0.273151,-343.264,-5716.04,1691.6,-0.35195,-0.231386,-0.276649,0.863746,719.259,-5578.33,1649.18,-0.0119638,-0.356347,-0.236325,0.903894,789.462,-5451.33,1610.82,,,,,,,,,,,,,,,-0.290919,-0.553138,-0.455949,0.633653,-338.678,-5922.19,1719.03,0.728452,-0.622293,0.197657,0.207462,-87.3402,-6083.52,1690.07,-0.0854699,-0.279453,-0.782543,0.549752,-426.722,-6175.94,1722.14,-0.184397,-0.345914,-0.469311,0.791258,562.892,-5800.04,1708.17
1022,0,-0.0927385,-0.384687,-0.295616,0.869498,-34.8419,-5352.47,1630.76,0.72663,-0.117102,0.607899,0.297917,-341.778,-5713.9,1693.67,-0.35162,-0.231704,-0.274701,0.864416,719.442,-5578.23,1649.33,-0.00404924,-0.366845,-0.238939,0.899064,788.644,-5452.48,1610.33,,,,,,,,,,,,,,,-0.294617,-0.546813,-0.45892,0.635287,-338.257,-5921.94,1718.99,0.730162,-0.617757,0.195704,0.216655,-86.9851,-6083.11,1690.16,-0.090342,-0.280817,-0.779692,0.552322,-426.707,-6175.81,1722.45,-0.184897,-0.345417,-0.468292,0.791961,562.963,-5800.26,1708.09
1023,0,-0.0924727,-0.387782,-0.292526,0.869196,-34.88,-5352.41,1630.42,0.701997,-0.148609,0.623966,0.309486,-341.721,-5715.16,1692.45,-0.350852,-0.240205,-0.27522,0.86224,719.115,-5578,1649.14,0.0347025,-0.344282,-0.33395,0.87678,788.841,-5452.29,1611.27,,,,,,,,-0.111066,-0.381067,-0.116975,0.910368,-110.283,-5477.47,1658.17,-0.294671,-0.544202,-0.461029,0.635976,-338.074,-5921.9,1718.83,0.731748,-0.614855,0.197448,0.217974,-86.8976,-6083.05,1690.11,-0.0901117,-0.28079,-0.7785,0.554053,-426.682,-6175.74,1722.81,-0.185254,-0.345901,-0.466927,0.792472,562.955,-5800.09,1708.21
1024,0,-0.0955793,-0.390374,-0.286181,0.869812,-35.1606,-5352.31,1629.59,0.691543,-0.18792,0.618777,0.321821,-346.577,-5722.5,1693.17,-0.350708,-0.241822,-0.274754,0.861996,719.211,-5577.87,1649.25,0.0383294,-0.348309,-0.339503,0.872897,788.348,-5452.72,1611.49,,,,,,,,-0.122799,-0.337384,-0.118017,0.925832,-108.702,-5476.19,1658.23,-0.287547,-0.54578,-0.462562,0.636771,-338.164,-5921.97,1718.62,0.732402,-0.614257,0.193866,0.220662,-86.6672,-6083.03,1690.01,-0.0889102,-0.281208,-0.780071,0.55182,-426.588,-6175.72,1723.07,-0.186102,-0.345613,-0.466268,0.792787,562.899,-5800.08,1708.21
1025,0,-0.100057,-0.391581,-0.282195,0.870068,-35.617,-5352.27,1628.71,0.664409,-0.200691,0.651563,0.306186,-344.621,-5728.16,1688.92,-0.350939,-0.234207,-0.273526,0.864391,719.792,-5577.83,1649.73,0.0503145,-0.373288,-0.337784,0.86257,787.754,-5453.74,1611.35,,,,,,,,-0.12722,-0.330383,-0.123234,0.927079,-108.185,-5475.37,1657.47,-0.285699,-0.544729,-0.463494,0.637825,-338.065,-5921.92,1718.43,0.733398,-0.612867,0.194847,0.220355,-86.71,-6082.8,1690,-0.0892815,-0.280935,-0.780818,0.550843,-426.473,-6175.69,1723.42,-0.187405,-0.344582,-0.466398,0.792853,563.038,-5800.33,1708.13
1026,0,-0.103363,-0.374922,-0.283611,0.876535,-34.9148,-5352.75,1628.92,0.700944,-0.249674,0.659041,0.109568,-346.306,-5728.83,1691.77,-0.35011,-0.23888,-0.274346,0.863188,719.656,-5577.75,1649.76,0.0625779,-0.361359,-0.37085,0.853214,788.525,-5454.71,1613.54,,,,,,,,-0.116053,-0.345644,-0.114317,0.924118,-107.867,-5474.54,1657.26,-0.283965,-0.542972,-0.466036,0.638245,-337.889,-5921.82,1718.27,0.734038,-0.612275,0.191059,0.223168,-86.5767,-6082.74,1689.84,-0.0935798,-0.279876,-0.778481,0.553966,-426.357,-6175.65,1723.75,-0.187207,-0.344823,-0.466547,0.792707,563.072,-5800.37,1708.18
1027,0,-0.0994658,-0.391028,-0.279469,0.871264,-35.2106,-5352.49,1629.21,0.713529,-0.248082,0.642644,0.127829,-344.951,-5725.72,1693.83,-0.349409,-0.236134,-0.274272,0.864251,719.806,-5577.77,1649.95,0.0603333,-0.364035,-0.377898,0.849136,788.285,-5455.04,1613.79,,,,,,,,-0.117905,-0.343645,-0.121518,0.92371,-107.939,-5474.13,1657.11,-0.282254,-0.541133,-0.468817,0.638528,-337.647,-5921.77,1718.11,0.735083,-0.610285,0.181271,0.233122,-86.0565,-6082.33,1689.67,-0.0928707,-0.276603,-0.776324,0.558737,-426.382,-6175.8,1724.31,-0.188937,-0.348589,-0.461594,0.793548,562.925,-5800.05,1708.14
1028,0,-0.0992641,-0.398576,-0.280826,0.867422,-35.256,-5352.38,1628.97,0.735015,-0.23841,0.620671,0.132971,-342.171,-5718.73,1695.72,-0.348266,-0.240772,-0.274437,0.863379,719.357,-5577.71,1649.76,0.060523,-0.369712,-0.384808,0.843548,788.089,-5455.42,1614,,,,,,,,-0.117574,-0.346275,-0.127011,0.922029,-108.091,-5473.47,1657.08,-0.279399,-0.540495,-0.466762,0.641822,-337.529,-5921.64,1718.06,0.736415,-0.607231,0.179182,0.238447,-86.0287,-6082.21,1689.56,-0.0960249,-0.27799,-0.776253,0.557613,-426.305,-6175.43,1724.52,-0.188943,-0.343916,-0.463668,0.794377,563.074,-5800.41,1708.1
1029,0,-0.101688,-0.394213,-0.278941,0.86974,-35.0689,-5352.47,1629.03,0.728473,-0.0562624,0.538466,0.41978,-335.426,-5711.67,1695.72,-0.348573,-0.241773,-0.273746,0.863195,719.313,-5577.67,1649.75,0.0546477,-0.361238,-0.388042,0.846135,788.28,-5455.48,1613.69,,,,,,,,-0.117169,-0.350927,-0.132181,0.919592,-108.382,-5472.85,1657.24,-0.279919,-0.538403,-0.466442,0.643584,-337.237,-5921.55,1717.93,0.738977,-0.606132,0.184892,0.22876,-86.0035,-6082.38,1689.72,-0.0934499,-0.278903,-0.779247,0.553403,-426.467,-6175.23,1724.8,-0.188244,-0.345325,-0.464203,0.793618,563.015,-5800.42,1708.02
1030,0,-0.101442,-0.387344,-0.277928,0.873173,-34.5987,-5352.56,1628.94,0.719201,-0.0685681,0.544974,0.425501,-334.819,-5712.13,1695.77,-0.348525,-0.243529,-0.273554,0.862781,719.264,-5577.63,1649.73,0.053178,-0.357857,-0.381121,0.850798,788.281,-5455.74,1612.48,,,,,,,,-0.114545,-0.361304,-0.134529,0.915555,-109.057,-5472.53,1657.36,-0.278186,-0.538315,-0.465618,0.645003,-337.234,-5921.57,1717.9,0.740576,-0.60478,0.184657,0.227353,-86.1059,-6082.33,1689.75,-0.0983826,-0.277612,-0.779158,0.553322,-426.483,-6174.87,1725.17,-0.188659,-0.345178,-0.463816,0.79381,563.076,-5800.42,1708.05
1031,0,-0.101439,-0.38681,-0.280871,0.872468,-34.6216,-5352.57,1628.7,,,,,,,,-0.349395,-0.240606,-0.272572,0.86356,719.482,-5577.58,1649.83,0.0450529,-0.346178,-0.382565,0.855438,788.75,-5455.63,1611.98,,,,,,,,-0.113394,-0.364392,-0.143484,0.913112,-109.727,-5471.86,1658.01,-0.278794,-0.536438,-0.465134,0.646652,-337.114,-5921.65,1717.8,0.739757,-0.604874,0.187216,0.227678,-86.1451,-6082.1,1689.79,-0.095573,-0.282949,-0.779711,0.550324,-426.678,-6174.71,1725.54,-0.189746,-0.34738,-0.460359,0.794603,563.089,-5800.16,1708.06
1032,0,-0.102397,-0.379446,-0.281167,0.875489,-34.3033,-5352.74,1628.52,,,,,,,,-0.347715,-0.241382,-0.272166,0.86415,719.221,-5577.57,1649.69,-0.0234525,-0.344341,-0.309662,0.885996,788.044,-5455.16,1610.76,,,,,,,,-0.113326,-0.364367,-0.152842,0.91161,-110.179,-5471.19,1658.59,-0.251228,-0.50294,-0.522922,0.640693,-335.751,-5922.23,1718.88,0.739777,-0.604004,0.187906,0.229348,-86.1321,-6082.01,1689.75,-0.096423,-0.282904,-0.779658,0.550274,-426.651,-6174.54,1725.95,-0.191218,-0.345487,-0.460028,0.795266,563.241,-5800.22,1708.12
1033,0,-0.100606,-0.380814,-0.281069,0.875134,-34.3502,-5352.87,1628.33,,,,,,,,-0.347996,-0.236475,-0.27189,0.865479,719.56,-5577.56,1649.87,-0.0411246,-0.332468,-0.29878,0.893591,789.155,-5454.5,1611.94,,,,,,,,-0.113221,-0.368473,-0.15553,0.909516,-110.622,-5471.09,1658.81,-0.247441,-0.500051,-0.521317,0.645717,-335.611,-5922.44,1718.74,0.740081,-0.603393,0.186695,0.230959,-86.0741,-6081.94,1689.75,-0.0975433,-0.280739,-0.777753,0.553869,-426.7,-6174.59,1726.35,-0.191475,-0.344871,-0.459522,0.795765,563.251,-5800.22,1708.17
1034,0,-0.0996084,-0.385578,-0.284064,0.87219,-34.6258,-5352.96,1628.64,,,,,,,,-0.348144,-0.238453,-0.270542,0.865299,719.443,-5577.53,1649.76,-0.0516398,-0.325753,-0.301072,0.894748,789.259,-5454.67,1612.17,,,,,,,,-0.112743,-0.374151,-0.161237,0.906258,-111.079,-5470.56,1659.04,-0.247929,-0.49839,-0.520777,0.647248,-335.423,-5922.48,1718.6,0.739818,-0.60561,0.177889,0.232938,-86.4971,-6081.88,1689.7,-0.10019,-0.279721,-0.77524,0.557424,-426.61,-6174.41,1726.42,-0.191405,-0.344957,-0.459153,0.795957,563.234,-5800.25,1708.12
1035,0,-0.10067,-0.399062,-0.280622,0.867102,-34.8328,-5352.76,1629.3,0.758454,-0.232508,0.568394,0.21821,-340.38,-5725.57,1699.06,-0.347865,-0.237582,-0.271144,0.865463,719.513,-5577.52,1649.77,-0.0688474,-0.341726,-0.301001,0.887627,789.013,-5454.3,1612.53,,,,,,,,-0.107961,-0.375816,-0.166329,0.90523,-111.342,-5470.12,1659.2,-0.247283,-0.496052,-0.521801,0.648465,-335.251,-5922.53,1718.44,0.739333,-0.60623,0.176637,0.233819,-86.4868,-6081.79,1689.61,-0.0994397,-0.276893,-0.775499,0.558609,-426.553,-6174.36,1726.42,-0.19105,-0.34596,-0.45894,0.79573,563.151,-5800.26,1708.1
1036,0,-0.100525,-0.401338,-0.275346,0.86776,-34.6283,-5352.7,1629.54,0.769385,-0.203228,0.564168,0.220134,-338.377,-5718.71,1699.5,-0.347529,-0.238856,-0.271756,0.865055,719.478,-5577.52,1649.75,-0.0472804,-0.382529,-0.280649,0.879018,786.767,-5453.54,1613.35,,,,,,,,-0.102738,-0.375267,-0.170093,0.905366,-111.49,-5469.73,1659.23,-0.247609,-0.493185,-0.521619,0.650671,-335.046,-5922.56,1718.25,0.738735,-0.607093,0.175561,0.23428,-86.4724,-6081.72,1689.57,-0.0977723,-0.273917,-0.776852,0.55849,-426.597,-6174.37,1726.41,-0.191614,-0.344924,-0.458755,0.796151,563.242,-5800.27,1708.17
1037,0,-0.101259,-0.399283,-0.274278,0.86896,-34.5075,-5352.61,1629.6,0.774632,-0.19045,0.561904,0.21895,-331.581,-5714.46,1696.67,-0.347099,-0.238734,-0.272402,0.865058,719.508,-5577.52,1649.78,-0.0398567,-0.399237,-0.272551,0.874492,784.949,-5454.24,1612.72,,,,,,,,-0.0991242,-0.372703,-0.175383,0.905819,-111.513,-5469.31,1659.12,-0.246258,-0.490457,-0.524366,0.651037,-334.852,-5922.6,1718.08,0.738955,-0.606188,0.178227,0.233916,-86.4918,-6081.7,1689.53,-0.0982216,-0.272993,-0.779165,0.555634,-426.508,-6174.19,1726.47,-0.191105,-0.345727,-0.459035,0.795763,563.302,-5800.47,1708.06
1038,0,-0.102397,-0.401297,-0.275556,0.867493,-34.6915,-5352.39,1629.42,0.755043,-0.141539,0.501172,0.398375,-333.126,-5715.29,1701.88,-0.346488,-0.239704,-0.272551,0.864988,719.397,-5577.53,1649.73,-0.0793915,-0.395047,-0.269877,0.874529,784.93,-5454.43,1612.29,,,,,,,,-0.096292,-0.3705,-0.176874,0.906738,-111.553,-5469.01,1659.11,-0.245905,-0.488069,-0.524189,0.653104,-334.682,-5922.61,1718.02,0.740214,-0.604606,0.178878,0.233532,-86.5086,-6081.66,1689.71,-0.0969991,-0.27374,-0.779809,0.554578,-426.617,-6174.15,1726.7,-0.192045,-0.348506,-0.455875,0.796141,563.136,-5800.16,1708.1
1039,0,-0.104021,-0.402402,-0.274564,0.867103,-34.8269,-5352.3,1629.39,0.736322,-0.147106,0.540165,0.380016,-336,-5718.64,1701.53,-0.346634,-0.236658,-0.271511,0.866094,719.526,-5577.56,1649.81,-0.0654723,-0.399948,-0.267414,0.874211,784.552,-5454.37,1611.69,,,,,,,,-0.088186,-0.369898,-0.179225,0.907346,-111.436,-5468.24,1659.42,-0.244454,-0.487773,-0.52412,0.653926,-334.428,-5922.59,1718.07,0.739066,-0.605346,0.180055,0.234346,-86.5538,-6081.63,1689.88,-0.101556,-0.274672,-0.779887,0.553189,-426.385,-6173.86,1727,-0.193423,-0.346217,-0.455477,0.797033,563.204,-5800.17,1708.1
1040,0,-0.105827,-0.396911,-0.271853,0.870263,-34.7339,-5352.51,1629.66,0.740605,-0.144374,0.545805,0.364359,-336.803,-5722.08,1701.58,-0.34648,-0.238857,-0.272662,0.86519,719.437,-5577.54,1649.73,-0.0619858,-0.390807,-0.263261,0.879842,785.168,-5454.15,1611.09,,,,,,,,-0.0888924,-0.371073,-0.177434,0.907149,-111.669,-5468.18,1659.52,-0.243175,-0.486869,-0.522535,0.65634,-334.2,-5922.6,1718.12,0.738271,-0.605275,0.182166,0.2354,-86.5506,-6081.65,1690.07,-0.105397,-0.276245,-0.778353,0.553848,-426.261,-6173.72,1727.39,-0.192484,-0.345324,-0.455939,0.797383,563.345,-5800.45,1708.04
1041,0,-0.103936,-0.398004,-0.26944,0.870742,-34.8494,-5352.57,1629.93,0.742001,-0.15349,0.544379,0.359897,-337.866,-5724.95,1701.98,-0.34648,-0.236231,-0.272371,0.866003,719.607,-5577.57,1649.84,0.00339359,-0.349919,-0.311109,0.883604,786.259,-5455.34,1611.66,,,,,,,,-0.0848655,-0.379242,-0.173257,0.904962,-111.937,-5467.53,1660.05,-0.241349,-0.486669,-0.526356,0.654105,-333.909,-5922.45,1718.1,0.737728,-0.60486,0.184605,0.236267,-86.5562,-6081.61,1690.21,-0.108392,-0.278199,-0.775495,0.556295,-426.221,-6173.57,1727.71,-0.193158,-0.345481,-0.455836,0.797212,563.347,-5800.38,1708.15
1042,0,-0.100334,-0.397008,-0.273331,0.870407,-34.9957,-5352.58,1630.23,0.735803,-0.167023,0.549515,0.35879,-338.591,-5725.95,1701.77,-0.346505,-0.237497,-0.272349,0.865653,719.552,-5577.59,1649.83,0.00485298,-0.35944,-0.303815,0.882313,787.017,-5455.87,1611.56,,,,,,,,-0.0895862,-0.376973,-0.164414,0.907102,-111.528,-5466.57,1660.39,-0.240475,-0.485786,-0.522664,0.658032,-333.6,-5922.48,1718.02,0.736574,-0.605942,0.19248,0.230749,-86.3885,-6081.73,1690.18,-0.107713,-0.276261,-0.771237,0.563269,-426.219,-6173.77,1728.02,-0.193239,-0.344785,-0.45589,0.797463,563.374,-5800.36,1708.18
1043,0,-0.0996302,-0.396434,-0.277846,0.869319,-34.9241,-5352.49,1630.71,0.739291,-0.16094,0.549199,0.354863,-338.373,-5726.07,1702.09,-0.346802,-0.237485,-0.2711,0.865929,719.621,-5577.63,1649.86,0.0126611,-0.366953,-0.306028,0.878369,786.215,-5455.79,1610.84,,,,,,,,-0.0930649,-0.37826,-0.161702,0.906703,-111.508,-5465.86,1660.52,-0.2388,-0.485644,-0.521154,0.659941,-333.385,-5922.46,1717.83,0.735304,-0.606639,0.194678,0.231124,-86.3515,-6081.7,1690.21,-0.114567,-0.277767,-0.766918,0.567059,-425.969,-6173.65,1728.09,-0.193986,-0.342774,-0.456077,0.798041,563.559,-5800.37,1708.31
1044,0,-0.10042,-0.395249,-0.281979,0.868436,-34.8263,-5352.4,1631.21,0.739424,-0.162902,0.553025,0.347675,-338.337,-5726.41,1702.14,-0.345574,-0.242208,-0.272084,0.864803,719.262,-5577.65,1649.63,0.0232491,-0.37217,-0.30937,0.874779,785.823,-5456.27,1610.66,,,,,,,,-0.0900325,-0.380438,-0.161616,0.906113,-111.552,-5465.35,1660.62,-0.236689,-0.483189,-0.519775,0.663582,-333.084,-5922.37,1717.6,0.735029,-0.606218,0.190151,0.236798,-86.5613,-6081.72,1690.12,-0.115727,-0.277541,-0.766044,0.568115,-425.882,-6173.67,1728.15,-0.192221,-0.344727,-0.456915,0.797147,563.426,-5800.38,1708.27
1045,0,-0.100673,-0.393147,-0.283778,0.868775,-34.6972,-5352.3,1631.37,0.743314,-0.154178,0.555296,0.339648,-338.976,-5727.46,1701.9,-0.34599,-0.238479,-0.271268,0.865929,719.498,-5577.69,1649.66,0.0161607,-0.350071,-0.318391,0.880804,785.947,-5457.06,1610.49,,,,,,,,-0.0892739,-0.380127,-0.157842,0.906984,-111.709,-5464.95,1660.62,-0.235824,-0.482513,-0.519064,0.664937,-332.973,-5922.3,1717.58,0.734315,-0.606984,0.1958,0.232412,-86.2036,-6081.86,1690.3,-0.113887,-0.277611,-0.7649,0.56999,-425.975,-6173.82,1728.21,-0.191149,-0.347627,-0.457337,0.795902,563.192,-5800.34,1708.09
1046,0,-0.0996726,-0.391403,-0.284761,0.869356,-34.7822,-5352.24,1631.21,0.739161,-0.155246,0.562035,0.33713,-339.866,-5729.13,1701.53,-0.344133,-0.23645,-0.273871,0.866405,719.561,-5577.72,1649.58,0.0161817,-0.343322,-0.319807,0.882945,785.797,-5457.64,1610.03,,,,,,,,-0.0907619,-0.382223,-0.158759,0.905794,-111.948,-5464.49,1660.71,-0.236319,-0.483322,-0.516142,0.666446,-332.948,-5922.17,1717.76,0.732666,-0.60672,0.198108,0.236315,-86.5927,-6081.61,1690.54,-0.114093,-0.278302,-0.764185,0.570571,-425.982,-6173.89,1728.3,-0.192621,-0.344929,-0.457136,0.796836,563.337,-5800.32,1708.17
1047,0,-0.0994794,-0.391418,-0.286682,0.86874,-34.8873,-5352.18,1631.1,0.771155,-0.216957,0.56201,0.205896,-340.998,-5729.95,1702.83,-0.341521,-0.239136,-0.27849,0.865229,719.419,-5577.71,1649.32,0.0184571,-0.347606,-0.320395,0.881009,785.505,-5457.88,1609.91,,,,,,,,-0.088794,-0.386575,-0.156298,0.90457,-112.612,-5464.67,1660.78,-0.239777,-0.486393,-0.514729,0.664065,-333.049,-5922.02,1718.01,0.731431,-0.606127,0.200128,0.239933,-86.6305,-6081.52,1690.81,-0.111322,-0.277519,-0.76544,0.569818,-426.111,-6174.15,1728.61,-0.191658,-0.345999,-0.45699,0.796688,563.222,-5800.31,1708.09
1048,0,-0.0967099,-0.392226,-0.290325,0.867477,-35.1306,-5352.33,1631.05,0.770207,-0.224337,0.56432,0.194928,-341.829,-5730.51,1702.36,-0.341532,-0.238043,-0.277352,0.865891,719.456,-5577.72,1649.25,0.0155073,-0.343598,-0.313408,0.885142,786.403,-5458,1609.58,,,,,,,,-0.09765,-0.388362,-0.156182,0.90291,-112.842,-5463.84,1660.79,-0.239773,-0.48948,-0.515432,0.661248,-333.148,-5921.89,1718.11,0.730143,-0.605596,0.201073,0.244367,-86.6386,-6081.42,1691.09,-0.114359,-0.277817,-0.765777,0.568617,-425.939,-6174.15,1728.65,-0.19128,-0.345815,-0.456763,0.796989,563.155,-5800.3,1708.02
1049,0,-0.0969023,-0.396496,-0.289692,0.865725,-35.4305,-5352.46,1631.14,0.762748,-0.215387,0.57671,0.198067,-341.852,-5729.82,1701.54,-0.340928,-0.239563,-0.278122,0.865463,719.346,-5577.67,1649.1,0.0115091,-0.33346,-0.313265,0.889122,786.285,-5457.82,1608.58,,,,,,,,-0.0994049,-0.389785,-0.152192,0.902787,-113.093,-5463.96,1660.97,-0.23962,-0.490399,-0.516558,0.659742,-333.169,-5921.82,1718.07,0.729084,-0.604713,0.203831,0.24741,-86.7051,-6081.3,1691.34,-0.114617,-0.276273,-0.768518,0.565611,-425.918,-6174.38,1728.64,-0.192499,-0.344152,-0.456356,0.797648,563.266,-5800.19,1708.11
1050,0,-0.0970473,-0.400606,-0.286762,0.864791,-35.562,-5352.48,1631.37,0.760379,-0.212482,0.581095,0.197492,-342.525,-5730.12,1700.67,-0.34091,-0.241561,-0.276878,0.865313,719.203,-5577.58,1648.97,0.0156718,-0.334583,-0.307611,0.890609,786.621,-5458.14,1608.57,,,,,,,,-0.0930036,-0.382578,-0.154276,0.906192,-113.033,-5463.47,1661.11,-0.238961,-0.491295,-0.519446,0.657041,-333.242,-5921.69,1717.99,0.728818,-0.602894,0.203801,0.252603,-86.7629,-6081.15,1691.47,-0.116292,-0.273122,-0.771499,0.562735,-425.801,-6174.64,1728.45,-0.192513,-0.343677,-0.456717,0.797643,563.286,-5800.25,1708.15
1051,0,-0.0975619,-0.405039,-0.285088,0.863221,-35.7401,-5352.53,1631.52,0.75647,-0.214725,0.588468,0.18802,-343.024,-5731.26,1699.97,-0.341465,-0.241741,-0.273876,0.866,719.247,-5577.52,1648.99,0.0188452,-0.322938,-0.319323,0.890724,786.09,-5458.11,1607.77,,,,,,,,-0.0934409,-0.382624,-0.155077,0.90599,-112.938,-5463.13,1661.11,-0.241886,-0.49122,-0.518317,0.656918,-333.327,-5921.41,1718.01,0.729141,-0.601943,0.203245,0.254381,-86.9246,-6081.04,1691.57,-0.11344,-0.267377,-0.77341,0.563452,-425.779,-6175.42,1728.35,-0.191315,-0.345282,-0.456986,0.797084,563.181,-5800.2,1708.1
1052,0,-0.0983623,-0.403614,-0.282569,0.864625,-35.6534,-5352.58,1631.34,0.757455,-0.215804,0.589744,0.178586,-343.315,-5733.36,1699.83,-0.340811,-0.244352,-0.274775,0.865239,719.143,-5577.47,1648.94,0.00388802,-0.297345,-0.326561,0.897178,786.5,-5458.68,1608.13,,,,,,,,-0.0943347,-0.381236,-0.150473,0.907258,-112.812,-5462.74,1660.85,-0.244276,-0.493803,-0.519234,0.653364,-333.333,-5921.08,1717.95,0.728997,-0.601174,0.20193,0.25764,-87.083,-6080.94,1691.65,-0.110873,-0.264029,-0.774145,0.564532,-425.781,-6176,1728.21,-0.190782,-0.345965,-0.456493,0.797198,563.147,-5800.29,1708.25
1053,0,-0.0962929,-0.400794,-0.284844,0.865422,-35.6749,-5352.6,1630.92,0.753624,-0.21687,0.596984,0.169202,-343.623,-5734.66,1699.78,-0.340595,-0.24355,-0.273457,0.865967,719.205,-5577.44,1649.02,0.0388587,-0.268068,-0.371945,0.887855,787.311,-5460.06,1609.08,,,,,,,,-0.0965296,-0.37905,-0.142727,0.909193,-112.636,-5462.31,1660.4,-0.243938,-0.494513,-0.519396,0.652824,-333.546,-5920.71,1718.05,0.727329,-0.602564,0.201889,0.259135,-87.4197,-6080.75,1691.83,-0.109574,-0.26287,-0.77673,0.561768,-425.577,-6176.42,1728.15,-0.190379,-0.347422,-0.45664,0.796576,563.091,-5800.3,1708.1
1054,0,-0.0949834,-0.39926,-0.285623,0.866019,-35.7234,-5352.52,1630.52,0.75504,-0.213912,0.595748,0.170995,-342.847,-5734.4,1699.83,-0.340184,-0.24206,-0.271381,0.867199,719.293,-5577.41,1649.14,0.0379565,-0.289327,-0.362236,0.885231,786.947,-5460.89,1608.97,,,,,,,,-0.093934,-0.381992,-0.139681,0.908707,-112.889,-5462.43,1659.89,-0.242337,-0.493978,-0.518057,0.654886,-333.583,-5920.57,1718.1,0.726052,-0.60341,0.203228,0.2597,-87.6824,-6080.63,1691.97,-0.111537,-0.261896,-0.778876,0.558859,-425.124,-6176.74,1728.28,-0.190593,-0.347072,-0.455844,0.797133,562.948,-5800.08,1708.17
1055,0,-0.093792,-0.400929,-0.283593,0.866045,-35.7561,-5352.58,1630.27,0.757384,-0.211199,0.590376,0.182265,-341.957,-5733.55,1700.02,-0.338899,-0.24423,-0.271485,0.867061,719.094,-5577.35,1649.04,0.0374391,-0.280822,-0.372016,0.883935,786.392,-5461.82,1609.15,,,,,,,,-0.0929341,-0.375829,-0.141941,0.911026,-112.154,-5461.78,1659.87,-0.241035,-0.49434,-0.5202,0.653393,-333.568,-5920.38,1718.09,0.722754,-0.605682,0.203519,0.263356,-87.9118,-6080.42,1692.08,-0.114482,-0.262799,-0.779212,0.557369,-424.611,-6176.93,1728.33,-0.190069,-0.347868,-0.4562,0.796708,562.927,-5800.16,1708.13
1056,0,-0.0932635,-0.401104,-0.281669,0.866649,-35.8658,-5352.66,1630.11,0.750977,-0.210946,0.598754,0.181738,-341.952,-5733.5,1699.81,-0.338198,-0.244999,-0.270925,0.867293,719.119,-5577.29,1649.03,0.0407148,-0.288258,-0.377111,0.879225,786.406,-5462.03,1609.52,,,,,,,,-0.0972002,-0.377314,-0.140379,0.910209,-112.14,-5461.29,1659.74,-0.240355,-0.493429,-0.521621,0.6532,-333.46,-5920.23,1717.97,0.721349,-0.606163,0.207334,0.263124,-88.2609,-6080.39,1692.11,-0.111273,-0.260352,-0.777301,0.561817,-424.479,-6177.65,1728.62,-0.190681,-0.346927,-0.456535,0.79678,563.02,-5800.4,1708.03
1057,0,-0.0938735,-0.401723,-0.279655,0.866948,-35.8345,-5352.82,1630.22,0.753978,-0.203542,0.599237,0.176075,-341.689,-5734.17,1700,-0.33839,-0.242277,-0.269201,0.868519,719.32,-5577.24,1649.02,0.0389059,-0.278644,-0.386394,0.878376,785.848,-5462.03,1609.22,,,,,,,,-0.0991569,-0.378027,-0.139313,0.909865,-112.223,-5461,1659.74,-0.240424,-0.492574,-0.520999,0.654314,-333.262,-5920.06,1717.9,0.722501,-0.604247,0.206584,0.264954,-88.0818,-6080.07,1692.13,-0.111447,-0.259782,-0.774724,0.565594,-424.26,-6177.93,1728.75,-0.190366,-0.34749,-0.45725,0.7962,562.971,-5800.38,1708.02
1058,0,-0.0944681,-0.402255,-0.278048,0.867154,-35.9123,-5352.93,1630.25,0.753204,-0.204462,0.602308,0.167641,-341.654,-5735.56,1700.04,-0.337637,-0.243536,-0.268617,0.868641,719.317,-5577.18,1648.91,0.0425648,-0.278443,-0.392851,0.8754,785.419,-5462.62,1609.18,,,,,,,,-0.103652,-0.384376,-0.137005,0.907051,-112.59,-5460.6,1660.05,-0.240256,-0.491479,-0.518243,0.657381,-332.841,-5919.84,1717.75,0.720648,-0.605571,0.202801,0.269855,-87.9986,-6080.09,1692.06,-0.110248,-0.257803,-0.771821,0.570679,-424.095,-6178.43,1728.88,-0.191471,-0.346294,-0.457319,0.796416,563.039,-5800.35,1708.11
1059,0,-0.0948251,-0.402143,-0.276735,0.867587,-35.9078,-5352.99,1630.46,0.750727,-0.211145,0.604717,0.161693,-341.375,-5735.29,1699.85,-0.33761,-0.245555,-0.266548,0.86872,719.209,-5577.09,1648.68,0.0472352,-0.269139,-0.395588,0.876837,785.949,-5463.26,1609.65,,,,,,,,-0.112127,-0.383358,-0.13834,0.906271,-113.314,-5460.2,1660.62,-0.240699,-0.491057,-0.513719,0.661074,-332.404,-5919.56,1717.59,0.718892,-0.607426,0.209691,0.265062,-87.9207,-6079.86,1692.06,-0.110222,-0.255587,-0.770659,0.573246,-423.855,-6178.72,1728.83,-0.190308,-0.348262,-0.456986,0.796028,562.835,-5800.14,1708.24
1060,0,-0.0949293,-0.403362,-0.276655,0.867035,-35.9063,-5352.98,1630.63,0.747885,-0.217822,0.604311,0.167421,-340.517,-5734,1699.79,-0.337778,-0.247653,-0.263604,0.868957,719.287,-5577.05,1648.59,0.0435584,-0.263048,-0.396495,0.878465,785.8,-5463.28,1609.16,,,,,,,,-0.11687,-0.389453,-0.133801,0.903751,-114.189,-5460.09,1661.23,-0.240421,-0.495953,-0.509918,0.660464,-331.953,-5919.28,1717.56,0.718284,-0.608449,0.212416,0.262178,-87.78,-6079.58,1692.05,-0.108008,-0.253955,-0.770671,0.574376,-423.837,-6178.97,1728.75,-0.191118,-0.347658,-0.457285,0.795926,562.917,-5800.39,1708.08
1061,0,-0.0945064,-0.40441,-0.277004,0.866481,-35.9027,-5352.94,1630.75,0.741852,-0.221276,0.608306,0.175091,-340.161,-5733.02,1699.87,-0.337816,-0.247748,-0.262039,0.869389,719.353,-5577.06,1648.47,0.0318772,-0.250637,-0.402236,0.879984,786.781,-5463.44,1609.27,,,,,,,,-0.10751,-0.400657,-0.132013,0.900271,-115.408,-5460.68,1661.77,-0.235315,-0.495018,-0.505135,0.66665,-331.345,-5919.06,1717.51,0.718365,-0.608976,0.20871,0.263704,-87.5616,-6079.54,1692.02,-0.108235,-0.254032,-0.769846,0.575404,-423.852,-6179.01,1728.75,-0.191514,-0.347202,-0.457261,0.796044,562.852,-5800.37,1708.02
1062,0,-0.0930693,-0.405742,-0.279009,0.86537,-35.8391,-5352.91,1630.83,0.732886,-0.211658,0.614117,0.202335,-341.111,-5733.1,1700.25,-0.336221,-0.244166,-0.262875,0.870767,719.565,-5577.09,1648.52,0.0168823,-0.239131,-0.400747,0.88427,787.597,-5463.81,1610.18,,,,,,,,-0.114998,-0.383557,-0.139058,0.905717,-114.857,-5459.46,1661.39,-0.229538,-0.496672,-0.504268,0.668089,-330.732,-5918.67,1717.61,0.715603,-0.608887,0.199045,0.278478,-87.462,-6079.1,1692.08,-0.108569,-0.25363,-0.769643,0.57579,-423.853,-6179.13,1728.83,-0.191225,-0.34732,-0.457366,0.796002,562.809,-5800.4,1707.97
1063,0,-0.0942155,-0.404024,-0.278189,0.866313,-35.6277,-5352.94,1630.87,0.731707,-0.210038,0.615429,0.204297,-340.568,-5732.99,1700.08,-0.335855,-0.248155,-0.263236,0.869671,719.51,-5577,1648.35,0.00314009,-0.24648,-0.400435,0.882547,787.274,-5463.97,1610.43,,,,,,,,-0.118788,-0.381317,-0.145038,0.905235,-114.446,-5459.78,1660.94,-0.22245,-0.500605,-0.502362,0.668986,-330.156,-5918.52,1717.66,0.713223,-0.609443,0.199321,0.283132,-87.1506,-6078.84,1692.16,-0.108437,-0.253721,-0.769829,0.575526,-423.818,-6179.19,1728.92,-0.190742,-0.348377,-0.457589,0.795527,562.783,-5800.38,1707.88
1064,0,-0.0935841,-0.403223,-0.275896,0.867487,-35.6132,-5353,1630.8,0.731261,-0.213096,0.617123,0.197502,-340.368,-5733.33,1700.08,-0.335748,-0.24767,-0.260958,0.870537,719.651,-5576.94,1648.37,-0.00141174,-0.255677,-0.40151,0.879441,786.759,-5463.83,1610.78,,,,,,,,-0.116373,-0.385533,-0.148862,0.90314,-114.295,-5459.22,1660.72,-0.216576,-0.503517,-0.500705,0.66997,-329.558,-5918.42,1717.7,0.709807,-0.61167,0.202457,0.284686,-87.065,-6078.72,1692.27,-0.109894,-0.253744,-0.768701,0.576746,-423.721,-6179.22,1729.01,-0.191275,-0.34642,-0.457368,0.79638,562.903,-5800.35,1708
1065,0,-0.0928028,-0.399878,-0.276127,0.869045,-35.4124,-5353.04,1630.66,0.729679,-0.21557,0.618885,0.19514,-340.505,-5733.52,1700.23,-0.335198,-0.252039,-0.25967,0.86988,719.342,-5576.84,1648.18,0.0220309,-0.326821,-0.395899,0.857885,781.328,-5463.31,1609.38,,,,,,,,-0.108614,-0.380755,-0.150997,0.905775,-113.441,-5459.11,1660.3,-0.204019,-0.514272,-0.502786,0.664159,-329.332,-5918.1,1717.18,0.707759,-0.613759,0.202046,0.285578,-86.8866,-6078.43,1692.38,-0.110179,-0.252808,-0.768786,0.576989,-423.638,-6179.26,1729.06,-0.189868,-0.34772,-0.457841,0.795879,562.855,-5800.34,1707.99
1066,0,-0.0932357,-0.398566,-0.273823,0.870329,-35.3564,-5353.03,1630.42,0.729344,-0.218207,0.61853,0.194585,-340.409,-5733.08,1700.3,-0.33518,-0.248184,-0.258501,0.871342,719.854,-5576.77,1648.46,0.0305001,-0.382041,-0.388783,0.837832,780.943,-5463.39,1610.45,,,,,,,,-0.097842,-0.381981,-0.154785,0.905847,-112.577,-5459.71,1659.04,-0.201268,-0.510686,-0.503071,0.667541,-328.954,-5918.36,1717.4,0.703155,-0.616445,0.198862,0.293296,-86.4327,-6077.96,1692.46,-0.110941,-0.252191,-0.767892,0.578303,-423.625,-6179.23,1729,-0.190161,-0.348349,-0.457202,0.795901,562.927,-5800.06,1708.18
1067,0,-0.09315,-0.399332,-0.271466,0.870725,-35.2499,-5353,1630.21,0.727565,-0.215707,0.624593,0.184399,-339.261,-5732.32,1699.67,-0.33359,-0.247045,-0.260481,0.871686,719.983,-5576.62,1648.53,0.00919831,-0.371693,-0.395179,0.839996,781.831,-5463.88,1610.65,,,,,,,,-0.0905893,-0.373857,-0.162082,0.90871,-111.444,-5459.83,1658.74,-0.193638,-0.512986,-0.504845,0.666694,-328.453,-5919.15,1717.45,0.702492,-0.61671,0.195198,0.296766,-86.2558,-6077.74,1692.41,-0.111157,-0.250631,-0.766694,0.580524,-423.661,-6179.29,1728.86,-0.19148,-0.346615,-0.456897,0.796517,563.035,-5799.96,1708.24
1068,0,-0.0945287,-0.397829,-0.270319,0.871622,-35.1442,-5352.96,1630.1,0.728318,-0.2172,0.624348,0.180461,-339.251,-5731.98,1699.57,-0.333461,-0.247847,-0.257506,0.872391,719.981,-5576.47,1648.56,-0.0366151,-0.323512,-0.358921,0.874743,782.33,-5464.28,1609.88,,,,,,,,-0.0857269,-0.369366,-0.170315,0.909512,-110.6,-5459.75,1658.14,-0.189316,-0.50443,-0.504503,0.674675,-328.947,-5919.88,1717.57,0.699412,-0.619653,0.200363,0.294462,-86.5113,-6077.28,1692.4,-0.112104,-0.249103,-0.766784,0.580881,-423.651,-6179.26,1728.77,-0.191053,-0.345871,-0.456731,0.797038,563.069,-5800.23,1708.17
1069,0,-0.0929924,-0.39735,-0.269333,0.87231,-34.9154,-5352.88,1629.96,0.727216,-0.213766,0.624031,0.189857,-340.218,-5731.83,1700.21,-0.332863,-0.246534,-0.256346,0.873333,720.199,-5576.41,1648.76,-0.027785,-0.339628,-0.358788,0.868995,783.335,-5463.95,1609.94,,,,,,,,-0.0854001,-0.362943,-0.175478,0.911146,-109.659,-5460.02,1657.05,-0.183856,-0.504012,-0.5042,0.676721,-328.873,-5920.59,1717.59,0.695887,-0.621064,0.203513,0.297663,-86.365,-6076.78,1692.48,-0.115058,-0.248446,-0.764333,0.583808,-423.714,-6179.12,1728.74,-0.19238,-0.344342,-0.457156,0.797137,563.29,-5800.16,1708.19
1070,0,-0.0918333,-0.39778,-0.269198,0.872279,-34.8734,-5352.83,1629.8,0.724634,-0.208975,0.629871,0.185733,-339.557,-5731.93,1699.73,-0.332079,-0.247487,-0.254654,0.873856,720.19,-5576.29,1648.84,-0.025953,-0.350606,-0.362415,0.863167,783.817,-5463.29,1610.28,,,,,,,,-0.0917229,-0.360257,-0.175482,0.911596,-108.995,-5460.35,1656.1,-0.177494,-0.50515,-0.503241,0.678283,-328.067,-5920.45,1717.55,0.695199,-0.620024,0.192485,0.308575,-85.8451,-6076.44,1692.63,-0.116684,-0.248344,-0.764658,0.583102,-423.719,-6179.05,1728.82,-0.192232,-0.345103,-0.457032,0.796914,563.144,-5800.17,1708.09
1071,0,-0.0920922,-0.395523,-0.271728,0.872493,-34.8315,-5352.83,1629.68,0.722591,-0.205604,0.633992,0.18342,-339.921,-5732.33,1699.87,-0.331822,-0.247089,-0.253213,0.874485,720.238,-5576.15,1648.87,-0.0283889,-0.35073,-0.364264,0.862261,784.479,-5463.06,1610.78,,,,,,,,-0.0904343,-0.354269,-0.177186,0.91374,-108.079,-5459.9,1655.49,-0.172713,-0.504044,-0.501987,0.681262,-327.372,-5920.24,1717.18,0.639704,-0.674552,0.220511,0.295182,-85.7247,-6075.64,1692.8,-0.123015,-0.24839,-0.764957,0.581387,-423.441,-6178.73,1728.95,-0.192757,-0.3447,-0.457404,0.796748,563.191,-5800.25,1708.11
1072,0,-0.0928525,-0.394866,-0.270137,0.873204,-34.7648,-5352.86,1629.76,0.723383,-0.204213,0.633893,0.182193,-340.065,-5732.57,1699.86,-0.330768,-0.249568,-0.253359,0.874138,720.121,-5576.06,1648.85,-0.0377458,-0.35606,-0.360024,0.861498,785.437,-5462.96,1611.01,,,,,,,,-0.0873596,-0.352049,-0.1768,0.914971,-107.118,-5460.02,1654.76,-0.166346,-0.49883,-0.497865,0.689658,-326.326,-5919.68,1716.35,0.643445,-0.670687,0.215351,0.299636,-85.5302,-6075.02,1692.96,-0.122974,-0.244452,-0.767601,0.579577,-423.233,-6178.92,1729.22,-0.193177,-0.349976,-0.453088,0.796813,562.963,-5799.98,1708.07
1073,0,-0.0920836,-0.39494,-0.269538,0.873437,-34.5361,-5352.87,1629.91,0.723112,-0.205256,0.634089,0.181411,-339.908,-5732.35,1699.64,-0.330043,-0.250053,-0.25279,0.874438,720.074,-5575.99,1648.83,-0.0411255,-0.352384,-0.357954,0.863715,785.377,-5462.5,1611.32,,,,,,,,-0.0830831,-0.344946,-0.180533,0.917342,-106.365,-5459.41,1654.56,-0.161247,-0.492004,-0.494002,0.698494,-325.039,-5918.81,1716.1,0.64704,-0.664526,0.20854,0.31025,-84.8242,-6074.5,1693.19,-0.121316,-0.247687,-0.769589,0.575905,-423.374,-6178.75,1729.28,-0.19446,-0.348626,-0.451821,0.797811,562.964,-5800.06,1708.18
1074,0,-0.0904098,-0.395097,-0.270915,0.873115,-34.5652,-5352.86,1630.08,0.719637,-0.205103,0.638658,0.179365,-340.121,-5732.39,1699.65,-0.329536,-0.250675,-0.25179,0.87474,720.044,-5575.97,1648.87,-0.0413768,-0.348633,-0.356017,0.866023,785.571,-5462.24,1611.51,,,,,,,,-0.0791046,-0.344404,-0.176418,0.918697,-104.871,-5458.95,1653.81,-0.155651,-0.493185,-0.490695,0.701256,-322.998,-5917.37,1714.74,0.652729,-0.657936,0.201183,0.317161,-84.0788,-6073.75,1693.5,-0.123378,-0.248373,-0.769427,0.575388,-423.34,-6178.64,1729.4,-0.195756,-0.345823,-0.452495,0.798332,563.181,-5800.33,1708.05
1075,0,-0.0925879,-0.394074,-0.269817,0.873689,-34.4318,-5352.85,1630.32,0.724008,-0.203389,0.63285,0.184244,-341.137,-5732.61,1700.12,-0.329196,-0.251275,-0.25124,0.874854,719.923,-5575.95,1648.84,-0.0408357,-0.337509,-0.358756,0.869318,785.836,-5461.41,1611.94,,,,,,,,-0.0827953,-0.328543,-0.177049,0.924045,-103.758,-5457.49,1652.33,-0.154431,-0.488349,-0.487324,0.707235,-321.812,-5916.1,1713.38,0.648815,-0.657962,0.204766,0.322794,-83.8894,-6072.96,1694.06,-0.123098,-0.248036,-0.768839,0.576378,-423.382,-6178.65,1729.51,-0.194304,-0.347753,-0.45265,0.79776,563.09,-5800.15,1708.18
1076,0,-0.0944005,-0.392967,-0.26796,0.874564,-34.2188,-5352.87,1630.45,0.721351,-0.199338,0.636,0.188206,-341.374,-5732.82,1699.93,-0.329382,-0.251548,-0.250128,0.875024,719.846,-5575.92,1648.86,-0.0309486,-0.346587,-0.357167,0.866805,785.681,-5461.46,1611.54,,,,,,,,,,,,,,,-0.151589,-0.485851,-0.483773,0.711993,-320.946,-5914.96,1712.55,0.647562,-0.655517,0.202019,0.331888,-83.0394,-6072.23,1694.52,-0.123901,-0.245394,-0.768753,0.577451,-423.327,-6178.75,1729.69,-0.19467,-0.345229,-0.453522,0.798272,563.381,-5800.45,1708.1
1077,0,-0.0924608,-0.393497,-0.268913,0.874241,-34.0638,-5352.72,1630.34,0.718163,-0.195795,0.640081,0.190273,-341.28,-5733.07,1699.76,-0.329911,-0.250205,-0.249012,0.875528,719.891,-5575.95,1648.99,-0.054094,-0.316685,-0.342799,0.882765,785.913,-5461.26,1611.43,,,,,,,,-0.582248,0.206122,0.514259,0.595012,368.677,-5957.52,1691.88,-0.148838,-0.483715,-0.479851,0.716666,-320.186,-5913.81,1712.1,0.647786,-0.650221,0.185264,0.351089,-81.6853,-6071.74,1695.02,-0.124351,-0.24768,-0.757181,0.591497,-424.049,-6179,1729.95,-0.194732,-0.344594,-0.454003,0.798258,563.386,-5800.46,1708.09
1078,0,-0.0921493,-0.391065,-0.268499,0.875491,-33.8401,-5352.71,1630.12,0.717782,-0.191469,0.641902,0.189973,-340.976,-5733.19,1699.76,-0.330398,-0.249837,-0.248003,0.875735,719.824,-5575.96,1649.07,-0.0532706,-0.316947,-0.346069,0.881444,786.409,-5460.89,1611.58,,,,,,,,-0.586893,0.206763,0.511377,0.592705,368.838,-5957.56,1692.02,-0.147084,-0.475093,-0.471952,0.727952,-319.654,-5912.75,1711.37,0.64427,-0.651277,0.193014,0.351426,-81.6781,-6071.2,1695.52,-0.124063,-0.250843,-0.760005,0.586582,-424.732,-6178.84,1730.55,-0.194456,-0.344472,-0.454208,0.798261,563.378,-5800.51,1708.04
1079,0,-0.0941291,-0.38757,-0.26464,0.878006,-33.4146,-5352.71,1629.75,0.718487,-0.186547,0.642052,0.191691,-341.056,-5733.66,1700.25,-0.331019,-0.249596,-0.247302,0.875768,719.855,-5575.94,1649.2,-0.0507894,-0.322842,-0.346075,0.879446,786.811,-5460.9,1611.65,,,,,,,,-0.585618,0.210485,0.515153,0.589377,368.954,-5957.62,1691.75,-0.145254,-0.46844,-0.46446,0.737389,-319.456,-5911.87,1711.46,0.640222,-0.65188,0.181438,0.36366,-80.6265,-6070.61,1695.94,-0.125181,-0.255476,-0.763418,0.579875,-425.593,-6178.56,1731.22,-0.194141,-0.34446,-0.454726,0.798048,563.476,-5800.55,1708.06
1080,0,-0.0942081,-0.375021,-0.266927,0.882742,-32.8818,-5352.81,1629.12,0.717932,-0.186165,0.64322,0.19022,-340.664,-5733.84,1700.47,-0.331797,-0.250458,-0.244929,0.875894,719.735,-5575.91,1649.22,-0.045092,-0.367376,-0.327287,0.869416,785.312,-5460.19,1610.48,,,,,,,,-0.586281,0.210621,0.516253,0.587704,368.979,-5957.65,1691.71,-0.145268,-0.470151,-0.459483,0.739412,-319.099,-5911.25,1711.53,0.636592,-0.653082,0.175652,0.37065,-80.379,-6069.98,1696.2,-0.13123,-0.26556,-0.770457,0.564493,-426.289,-6177.73,1731.67,-0.195544,-0.347714,-0.45066,0.798601,563.34,-5800.26,1708.07
1081,0,-0.0905147,-0.371432,-0.266875,0.88466,-32.8463,-5352.73,1628.53,0.718379,-0.185761,0.643269,0.188761,-340.35,-5733.96,1700.66,-0.33196,-0.251876,-0.244962,0.875416,719.622,-5575.85,1649.23,-0.0558244,-0.340075,-0.326474,0.88014,786.682,-5460.05,1611.33,,,,,,,,-0.586684,0.212558,0.51662,0.586281,369.382,-5957.56,1692.23,-0.146569,-0.467549,-0.450464,0.746323,-318.732,-5910.56,1711.32,0.633174,-0.654117,0.176297,0.374353,-80.3058,-6069.27,1696.27,-0.123614,-0.266689,-0.770941,0.565019,-427.156,-6177.96,1732.01,-0.196504,-0.346053,-0.450637,0.799099,563.414,-5800.33,1708.12
1082,0,-0.0905532,-0.367986,-0.263367,0.887144,-32.6209,-5352.71,1628.09,0.719139,-0.186798,0.642914,0.18603,-339.841,-5733.91,1700.57,-0.332907,-0.253669,-0.243076,0.875065,719.5,-5575.78,1649.18,-0.0474183,-0.34025,-0.331633,0.878636,787.945,-5459.5,1612.19,,,,,,,,-0.587229,0.212074,0.517313,0.585298,369.429,-5957.55,1692.16,-0.148268,-0.465709,-0.445315,0.750218,-318.417,-5909.82,1711.26,0.628984,-0.657635,0.181487,0.37277,-80.1588,-6068.98,1696.32,-0.121022,-0.273745,-0.772402,0.56019,-427.941,-6177.91,1732.01,-0.197393,-0.343675,-0.450573,0.799942,563.706,-5800.44,1708.25
1083,0,-0.075712,-0.344909,-0.323832,0.877746,-31.9129,-5352.5,1628.44,0.719791,-0.185535,0.643826,0.181564,-339.586,-5734.23,1700.54,-0.333398,-0.253723,-0.24237,0.875058,719.463,-5575.69,1649.17,-0.0407128,-0.33982,-0.336487,0.877292,788.224,-5459.32,1612.04,,,,,,,,-0.585869,0.214725,0.518925,0.584267,369.391,-5957.56,1692.1,-0.152837,-0.464066,-0.436736,0.755344,-318.234,-5909.45,1711.16,0.626658,-0.660178,0.181953,0.371965,-80.1315,-6068.6,1696.27,-0.116905,-0.276013,-0.773679,0.558186,-428.002,-6177.97,1731.93,-0.195983,-0.344861,-0.451021,0.799526,563.531,-5800.44,1708.11
1084,0,-0.0752992,-0.34256,-0.320821,0.879805,-31.7877,-5352.48,1628.13,0.721496,-0.182923,0.642755,0.181239,-339.506,-5734.53,1700.44,-0.33458,-0.255682,-0.239688,0.874776,719.386,-5575.57,1649.14,-0.0444051,-0.32865,-0.329402,0.884032,789.075,-5458.79,1612.43,,,,,,,,-0.586993,0.214242,0.518671,0.58354,369.428,-5957.58,1692.15,-0.15383,-0.462973,-0.437122,0.755591,-318.125,-5909.12,1711.05,0.625388,-0.662349,0.189708,0.366325,-80.4386,-6068.04,1696.02,-0.113166,-0.27909,-0.773007,0.558357,-427.769,-6178,1731.89,-0.195983,-0.342607,-0.451739,0.800089,563.683,-5800.65,1708.08
1085,0,-0.0748784,-0.341851,-0.317869,0.881187,-31.6047,-5352.6,1628.21,0.71464,-0.183302,0.651426,0.177014,-339.149,-5735.1,1699.83,-0.334591,-0.257549,-0.239368,0.874312,719.281,-5575.45,1649.1,-0.046442,-0.325293,-0.318819,0.889034,789.158,-5459.05,1611.99,,,,,,,,-0.587006,0.21478,0.519217,0.582844,369.389,-5957.63,1692.1,-0.153624,-0.460647,-0.437127,0.75705,-318.03,-5908.81,1710.98,0.624124,-0.665188,0.192571,0.361816,-80.6759,-6067.76,1695.67,-0.106195,-0.279529,-0.773632,0.558641,-427.525,-6178.09,1731.69,-0.195334,-0.347108,-0.449398,0.799626,563.447,-5800.35,1708.09
1086,0,-0.0756401,-0.341025,-0.314237,0.882743,-31.5153,-5352.58,1628.25,0.71691,-0.180396,0.650201,0.175318,-339.638,-5735.35,1700.31,-0.335021,-0.258801,-0.238962,0.873888,719.229,-5575.32,1649.09,-0.0492465,-0.338892,-0.319531,0.883531,788.331,-5458.68,1610.41,,,,,,,,-0.586843,0.214588,0.520128,0.582266,369.298,-5957.69,1692.03,-0.154784,-0.458829,-0.432074,0.760809,-318.053,-5908.51,1711.3,0.618816,-0.668351,0.190513,0.366167,-80.5137,-6067.55,1695.03,-0.105963,-0.28259,-0.771235,0.560457,-427.257,-6178.02,1731.99,-0.19656,-0.34456,-0.449063,0.800615,563.585,-5800.4,1708.1
1087,0,-0.0771386,-0.340151,-0.311764,0.883827,-31.4072,-5352.67,1628.32,0.716048,-0.175215,0.651759,0.178283,-340.364,-5736.06,1700.58,-0.334846,-0.259052,-0.239177,0.873822,719.282,-5575.23,1649.18,-0.0453453,-0.339944,-0.320424,0.883012,788.573,-5458.63,1610.23,,,,,,,,-0.586935,0.210897,0.519111,0.584426,368.605,-5957.82,1691.28,-0.158304,-0.459383,-0.426991,0.762617,-318.043,-5908.18,1711.43,0.613984,-0.672717,0.190848,0.366132,-80.2601,-6067.14,1694.38,-0.110744,-0.288929,-0.768322,0.560301,-427.112,-6177.68,1732.51,-0.19605,-0.344833,-0.448896,0.800716,563.495,-5800.35,1708.02
1088,0,-0.0789593,-0.339805,-0.309449,0.884613,-31.2176,-5352.77,1628.43,0.714915,-0.173206,0.654186,0.175885,-340.549,-5736.4,1700.5,-0.335406,-0.259807,-0.238661,0.873524,719.287,-5575.14,1649.27,-0.0449708,-0.337121,-0.320836,0.883963,788.82,-5458.56,1610.1,,,,,,,,-0.597653,0.194622,0.511934,0.58554,367.721,-5957.99,1690.83,-0.16268,-0.462619,-0.431402,0.757239,-317.744,-5907.57,1711.61,0.615152,-0.666646,0.186122,0.377531,-79.4468,-6066.35,1693.73,-0.111189,-0.291549,-0.767924,0.5594,-426.906,-6177.52,1732.5,-0.195759,-0.342669,-0.44943,0.801417,563.758,-5800.61,1708.02
1089,0,-0.0801092,-0.339096,-0.306783,0.885709,-31.1595,-5352.76,1628.43,0.708429,-0.175687,0.662369,0.168907,-340.682,-5736.92,1699.91,-0.336066,-0.260453,-0.236913,0.873554,719.247,-5575.06,1649.34,-0.0459791,-0.335089,-0.318132,0.88566,789.309,-5458.74,1610.06,,,,,,,,-0.589114,0.211449,0.524795,0.576909,362.306,-5957.31,1688.01,-0.164624,-0.460341,-0.430854,0.758518,-317.318,-5906.79,1712.21,0.617068,-0.664959,0.190619,0.375129,-79.9506,-6066.24,1694.14,-0.11047,-0.289589,-0.76727,0.561454,-426.496,-6177.63,1732.61,-0.1957,-0.347009,-0.447716,0.800523,563.554,-5800.29,1708.09
1090,0,-0.0810335,-0.337664,-0.304671,0.8869,-31.034,-5352.85,1628.47,0.703622,-0.177744,0.66767,0.165954,-341.328,-5737.32,1700.08,-0.336526,-0.260716,-0.235737,0.873616,719.261,-5575.03,1649.44,-0.0414513,-0.340287,-0.313576,0.885526,788.908,-5458.42,1609.6,,,,,,,,-0.583002,0.222544,0.52816,0.575873,362.899,-5957.37,1688.4,-0.167668,-0.461152,-0.424803,0.760768,-316.906,-5906.03,1712.92,0.613124,-0.673396,0.198465,0.362255,-80.8403,-6065.91,1694.98,-0.114659,-0.287315,-0.764558,0.565468,-425.97,-6177.67,1732.79,-0.196563,-0.345672,-0.447799,0.800843,563.607,-5800.35,1708.11
1091,0,-0.082645,-0.336122,-0.302949,0.887927,-30.9361,-5352.91,1628.45,0.702808,-0.182447,0.66835,0.1615,-341.317,-5737.3,1699.67,-0.336608,-0.260958,-0.234869,0.873746,719.24,-5575.01,1649.51,-0.0398494,-0.341305,-0.30987,0.886512,789.065,-5458.33,1609.3,,,,,,,,-0.556334,0.255564,0.536502,0.580814,297.419,-5930.81,1650.39,-0.170247,-0.463015,-0.419858,0.761809,-316.394,-5905.05,1713.89,0.610644,-0.673982,0.199769,0.364628,-81.2641,-6065.32,1695.3,-0.123668,-0.281778,-0.762251,0.569457,-424.817,-6177.38,1733.07,-0.197418,-0.344194,-0.448596,0.800824,563.738,-5800.47,1708.1
1092,0,-0.0759141,-0.361403,-0.295174,0.881191,-32.2125,-5353.01,1627.66,0.71096,-0.177997,0.664923,0.143984,-340.596,-5736.86,1698.83,-0.336749,-0.262309,-0.235281,0.873177,719.195,-5574.98,1649.53,-0.038291,-0.341091,-0.306549,0.887816,789.361,-5458.32,1609.11,,,,,,,,,,,,,,,-0.176495,-0.460263,-0.415879,0.764233,-315.659,-5904.03,1714.8,0.584543,-0.688113,0.21018,0.375012,-80.6513,-6064.75,1695.16,-0.140406,-0.274796,-0.7499,0.58517,-423.497,-6177.35,1733.23,-0.198356,-0.341746,-0.448979,0.801425,563.796,-5800.46,1708.17
1093,0,-0.0783399,-0.359092,-0.29083,0.883365,-31.8715,-5353.16,1627.22,0.71258,-0.173936,0.663094,0.149274,-341.948,-5737.3,1699.4,-0.336909,-0.26177,-0.234453,0.873499,719.111,-5574.98,1649.53,-0.0337193,-0.345928,-0.302402,0.887553,789.036,-5457.85,1608.79,,,,,,,,,,,,,,,-0.17817,-0.457558,-0.408366,0.769502,-315.39,-5903.43,1715.61,0.583063,-0.690511,0.208537,0.373823,-80.649,-6064.28,1695.42,-0.144186,-0.266879,-0.749157,0.588855,-422.163,-6177.35,1732.75,-0.190465,-0.348382,-0.448081,0.800985,563.482,-5800.49,1708.1
1094,0,-0.081256,-0.35459,-0.287963,0.885856,-32.0729,-5353.23,1626.77,0.710674,-0.172559,0.66544,0.149519,-342.257,-5737.49,1699.31,-0.336703,-0.26106,-0.234395,0.873807,719.048,-5575,1649.5,-0.0313657,-0.346464,-0.298749,0.888666,789.27,-5457.81,1608.63,,,,,,,,,,,,,,,-0.179279,-0.461552,-0.404273,0.76902,-315.495,-5903.21,1715.75,0.582273,-0.686373,0.205653,0.38413,-79.8332,-6063.33,1695.19,-0.147584,-0.258979,-0.748785,0.592005,-420.889,-6177.22,1732.49,-0.194574,-0.344347,-0.449298,0.80106,563.443,-5800.19,1708.19
1095,0,-0.083465,-0.349073,-0.286932,0.888173,-32.2179,-5353.32,1626.48,0.709729,-0.171439,0.66726,0.147163,-342.728,-5737.71,1699.25,-0.336505,-0.261223,-0.233408,0.874098,718.938,-5575.03,1649.47,-0.0217524,-0.298789,-0.300974,0.905354,791.573,-5458.24,1610.49,,,,,,,,,,,,,,,-0.180739,-0.461859,-0.407451,0.766814,-315.253,-5903.01,1715.49,0.579165,-0.688362,0.203025,0.386661,-79.0157,-6062.55,1694.81,-0.151792,-0.255411,-0.745962,0.596042,-419.949,-6177.15,1732.35,-0.196851,-0.3422,-0.450767,0.800598,563.615,-5800.29,1708.24
1096,0,-0.0843952,-0.34661,-0.285625,0.88947,-32.2524,-5353.35,1626.52,0.707503,-0.168452,0.671193,0.1434,-343.092,-5738.08,1699,-0.336646,-0.260603,-0.232352,0.87451,718.869,-5575.02,1649.5,-0.0283875,-0.304701,-0.300036,0.90351,790.694,-5457.96,1608.94,,,,,,,,,,,,,,,-0.176283,-0.463229,-0.410804,0.765234,-315.357,-5903.09,1715.64,0.580022,-0.67972,0.203486,0.400186,-77.5192,-6061.41,1694.27,-0.156858,-0.252188,-0.743101,0.599665,-419.157,-6176.9,1732.31,-0.197015,-0.343386,-0.45188,0.799422,563.413,-5800.1,1708.08
1097,0,-0.0853368,-0.344506,-0.284256,0.890636,-32.1655,-5353.35,1626.67,0.702019,-0.168677,0.677562,0.140098,-343.21,-5738.29,1698.62,-0.336617,-0.264277,-0.23412,0.872946,718.724,-5575.01,1649.45,-0.0301826,-0.312039,-0.294182,0.902872,790.984,-5457.64,1609.01,,,,,,,,,,,,,,,-0.173402,-0.460733,-0.416427,0.76436,-315.977,-5903.96,1715.26,0.57849,-0.678912,0.208783,0.401046,-75.84,-6060.38,1693.53,-0.157621,-0.249152,-0.745539,0.597705,-418.474,-6176.58,1732.38,-0.198059,-0.34116,-0.452644,0.799685,563.624,-5800.06,1708.3
1098,0,-0.0865922,-0.346074,-0.282776,0.890377,-32.3899,-5353.22,1626.7,0.701314,-0.173175,0.681934,0.11461,-343.477,-5738.56,1698.15,-0.336011,-0.262422,-0.23446,0.873647,718.77,-5575.02,1649.55,-0.0325853,-0.307566,-0.284555,0.907397,792.264,-5457.23,1610.07,,,,,,,,,,,,,,,-0.167506,-0.439371,-0.405841,0.783701,-315.97,-5904.8,1715.01,0.578008,-0.671778,0.210382,0.412747,-73.5493,-6059.08,1692.8,-0.157099,-0.247316,-0.748262,0.595196,-418.033,-6176.29,1732.42,-0.195925,-0.342863,-0.45269,0.799456,563.659,-5799.99,1708.39
1099,0,-0.0876953,-0.347308,-0.281729,0.890121,-32.4644,-5353.16,1626.85,0.697945,-0.173931,0.686242,0.108132,-343.675,-5738.98,1697.67,-0.33642,-0.262843,-0.233201,0.8737,718.652,-5575.02,1649.52,-0.0351485,-0.302963,-0.276706,0.911269,792.107,-5456.43,1610.04,,,,,,,,,,,,,,,-0.1692,-0.437747,-0.408893,0.782659,-316.279,-5905.18,1714.81,0.577401,-0.672473,0.223993,0.405234,-71.8285,-6057.7,1692.32,-0.160802,-0.24357,-0.74827,0.595742,-417.491,-6176.13,1732.58,-0.194792,-0.344088,-0.452462,0.799336,563.646,-5799.91,1708.37
1100,0,-0.0891927,-0.347488,-0.280352,0.890337,-32.4944,-5353.09,1626.93,0.698323,-0.177381,0.684322,0.112176,-343.49,-5738.87,1697.38,-0.33642,-0.26491,-0.233726,0.872936,718.553,-5575.02,1649.52,-0.0302565,-0.334012,-0.269127,0.902824,790.531,-5455.67,1608.9,,,,,,,,,,,,,,,-0.16499,-0.439869,-0.411669,0.780911,-316.6,-5905.58,1714.91,0.577956,-0.666726,0.234697,0.407874,-70.1777,-6055.65,1691.57,-0.168623,-0.238849,-0.749414,0.59405,-416.764,-6175.75,1732.71,-0.197087,-0.342062,-0.452643,0.79954,563.626,-5799.8,1708.19
1101,0,-0.0903553,-0.348013,-0.278589,0.890568,-32.6937,-5352.96,1626.78,0.697771,-0.180498,0.683324,0.116636,-343.794,-5739.43,1697.54,-0.336448,-0.264734,-0.231891,0.873467,718.505,-5575.05,1649.54,-0.0305589,-0.339334,-0.261919,0.902949,790.775,-5456.21,1608.64,,,,,,,,,,,,,,,-0.164699,-0.442789,-0.413318,0.778447,-316.783,-5905.91,1715.15,0.483761,-0.715438,0.294885,0.40886,-68.8363,-6054.07,1690.96,-0.16575,-0.236986,-0.749488,0.59551,-416.837,-6175.78,1732.81,-0.209647,-0.344397,-0.433038,0.806174,563.523,-5799.61,1708.12
1102,0,-0.0908308,-0.34763,-0.276765,0.891237,-33.0259,-5352.83,1626.55,0.702441,-0.178305,0.677886,0.123511,-344.83,-5740.07,1698.35,-0.335337,-0.264835,-0.232061,0.873819,718.443,-5575.11,1649.56,-0.036205,-0.339046,-0.257871,0.904013,790.629,-5456.43,1608.38,,,,,,,,,,,,,,,-0.164723,-0.439995,-0.410733,0.781389,-316.697,-5906.01,1715.28,0.490191,-0.703981,0.290905,0.423671,-68.492,-6051.84,1690.92,-0.167095,-0.234544,-0.751798,0.593185,-416.635,-6175.55,1732.95,-0.20497,-0.343925,-0.427367,0.810593,563.549,-5799.61,1708.29
1103,0,-0.091186,-0.349463,-0.274795,0.891094,-33.1842,-5352.73,1626.58,0.704416,-0.179421,0.675842,0.121835,-344.892,-5740.44,1698.45,-0.334154,-0.265803,-0.234203,0.873407,718.387,-5575.19,1649.54,-0.0410862,-0.332798,-0.25908,0.905779,790.909,-5456.53,1608.31,,,,,,,,,,,,,,,-0.163999,-0.44208,-0.409043,0.781251,-316.906,-5906.3,1715.15,0.495582,-0.692802,0.289995,0.436265,-68.5776,-6049.87,1691.22,-0.166441,-0.233288,-0.754892,0.589925,-416.463,-6175.35,1733,-0.205245,-0.34382,-0.428189,0.810134,563.609,-5799.82,1708.1
1104,0,-0.0816272,-0.323486,-0.318188,0.887384,-32.2582,-5352.44,1627.48,0.706064,-0.18289,0.673351,0.120926,-344.962,-5740.8,1698.39,-0.333901,-0.264457,-0.234471,0.87384,718.443,-5575.31,1649.64,-0.0449006,-0.330915,-0.259005,0.906309,790.437,-5456.14,1607.77,,,,,,,,-0.566001,0.201163,0.522798,0.604863,371.983,-5959.24,1690.56,-0.162552,-0.455484,-0.412604,0.771925,-317.197,-5906.17,1714.34,0.452205,-0.700133,0.317428,0.452288,-68.868,-6047.6,1691.53,-0.172665,-0.231718,-0.745948,0.600046,-416.332,-6175.3,1733.23,-0.206609,-0.342388,-0.425891,0.811603,563.726,-5799.86,1708.12
1105,0,-0.0792249,-0.32678,-0.315401,0.88739,-32.5456,-5352.33,1627.66,0.70806,-0.182187,0.672754,0.113408,-346.297,-5741.74,1699.17,-0.332875,-0.265133,-0.236223,0.873554,718.386,-5575.44,1649.72,-0.0500016,-0.317934,-0.25747,0.911113,791.072,-5456.77,1607.53,,,,,,,,-0.576732,0.195658,0.513859,0.604191,372.001,-5959.29,1690.74,-0.162248,-0.455454,-0.421077,0.767419,-317.331,-5906.32,1714.03,0.45752,-0.688841,0.306881,0.471167,-69.008,-6045.34,1691.56,-0.169094,-0.229588,-0.749832,0.597033,-416.106,-6175.14,1733.21,-0.207764,-0.341083,-0.423316,0.813204,563.796,-5799.95,1708.2
1106,0,-0.0807402,-0.334277,-0.309493,0.886541,-32.7439,-5352.26,1628.07,0.70339,-0.189964,0.676454,0.107548,-344.463,-5741.41,1697.82,-0.332843,-0.265917,-0.237587,0.872958,718.27,-5575.56,1649.78,-0.0551961,-0.309169,-0.257698,0.913761,791.224,-5457.09,1607.01,,,,,,,,-0.58267,0.191694,0.513914,0.599701,371.694,-5959.48,1690.85,-0.161097,-0.453735,-0.426556,0.765652,-317.458,-5906.43,1713.75,0.460501,-0.677834,0.29498,0.491392,-69.4616,-6043.17,1692.31,-0.169138,-0.228436,-0.752335,0.594307,-415.886,-6174.95,1733.26,-0.207092,-0.340614,-0.423759,0.813341,563.9,-5800.05,1708.18
1107,0,-0.0842473,-0.340731,-0.306856,0.884672,-33.0035,-5352.24,1628.37,0.70556,-0.189264,0.674879,0.104416,-344.509,-5741.92,1697.76,-0.33281,-0.265456,-0.240178,0.872402,718.161,-5575.78,1649.86,-0.0622433,-0.297919,-0.25941,0.916557,791.403,-5457.16,1606.53,,,,,,,,-0.5815,0.189558,0.514461,0.601045,365.268,-5958.31,1688.51,-0.158318,-0.452179,-0.431122,0.764594,-317.508,-5906.5,1713.57,0.462891,-0.667418,0.280769,0.511326,-69.8423,-6040.98,1692.98,-0.17031,-0.226062,-0.75475,0.591813,-415.551,-6174.82,1733.35,-0.183358,-0.338364,-0.468285,0.795361,564.404,-5800.04,1708.43
1108,0,-0.0885656,-0.346556,-0.304016,0.882966,-33.2975,-5352.13,1628.76,0.706566,-0.188974,0.673995,0.103846,-344.339,-5742.28,1697.69,-0.333875,-0.263917,-0.242735,0.871754,718.157,-5576.05,1649.98,-0.0762956,-0.27693,-0.262819,0.921094,791.804,-5457.2,1605.91,,,,,,,,-0.574289,0.194518,0.510646,0.609587,366.08,-5958.45,1689.44,-0.155405,-0.451076,-0.435334,0.763455,-317.577,-5906.54,1713.49,0.456807,-0.664723,0.278695,0.521344,-70.4198,-6039.05,1693.64,-0.16994,-0.225123,-0.756488,0.590056,-415.422,-6174.87,1733.34,-0.185771,-0.334722,-0.466836,0.797192,564.643,-5800.18,1708.54
1109,0,-0.0837741,-0.372395,-0.296832,0.875325,-34.7603,-5352.2,1628.37,0.706923,-0.191591,0.67271,0.104947,-344.369,-5742.87,1697.84,-0.336143,-0.262898,-0.244982,0.870561,718.147,-5576.36,1650.09,-0.0910987,-0.246653,-0.264695,0.927793,792.052,-5457.48,1605.54,,,,,,,,-0.571573,0.203611,0.509583,0.610058,365.171,-5958.55,1690.35,-0.152986,-0.450933,-0.437078,0.763032,-317.629,-5906.59,1713.47,0.445856,-0.665502,0.269043,0.534729,-70.9039,-6037.59,1693.82,-0.168613,-0.224112,-0.759293,0.587212,-415.265,-6174.73,1733.42,-0.18464,-0.336694,-0.465436,0.797442,564.129,-5800.24,1708.3
1110,0,-0.0857602,-0.384058,-0.294684,0.870808,-35.8276,-5351.98,1628.67,0.710476,-0.190825,0.669075,0.105581,-345.796,-5743.87,1698.93,-0.336722,-0.259302,-0.253738,0.868906,718.034,-5576.67,1650.12,-0.0965173,-0.235355,-0.265278,0.930011,792.55,-5457.75,1605.41,,,,,,,,-0.57599,0.179413,0.500448,0.620966,364.983,-5958.4,1690.68,-0.15256,-0.451564,-0.438335,0.762022,-317.656,-5906.55,1713.49,0.442252,-0.663677,0.260322,0.544223,-71.1911,-6035.78,1694.26,-0.167759,-0.223911,-0.760607,0.58583,-415.23,-6174.7,1733.49,-0.185167,-0.335212,-0.465731,0.797773,564.289,-5800.42,1708.24
1111,0,-0.0880253,-0.39307,-0.289805,0.868194,-35.9544,-5351.97,1629.23,0.712604,-0.19037,0.667141,0.104292,-345.835,-5744.31,1699.03,-0.341779,-0.262092,-0.250642,0.866991,717.762,-5576.78,1649.97,-0.100114,-0.227232,-0.265067,0.931709,793.016,-5457.75,1605.19,,,,,,,,-0.577847,0.177924,0.495787,0.623402,364.848,-5958.47,1691.42,-0.151081,-0.452305,-0.437743,0.762218,-317.635,-5906.49,1713.54,0.437984,-0.664724,0.2534,0.549637,-71.6732,-6034.04,1694.28,-0.168065,-0.224144,-0.762014,0.583822,-415.206,-6174.62,1733.6,-0.186637,-0.336577,-0.465112,0.797217,564.342,-5800.35,1708.26
1112,0,-0.0906864,-0.397191,-0.283472,0.868135,-35.7465,-5352.15,1629.78,0.713449,-0.191792,0.666214,0.101812,-345.705,-5744.67,1699.01,-0.345932,-0.258217,-0.249587,0.866811,717.493,-5577.02,1649.79,-0.101628,-0.222955,-0.264219,0.932819,793.244,-5457.66,1604.83,,,,,,,,-0.575537,0.185819,0.492641,0.625726,364.407,-5958.3,1691.99,-0.150899,-0.452186,-0.436855,0.762833,-317.611,-5906.44,1713.57,0.434144,-0.665501,0.245591,0.555258,-71.6258,-6032.18,1694.43,-0.168625,-0.224323,-0.763199,0.582041,-415.178,-6174.56,1733.73,-0.187874,-0.336604,-0.464579,0.797225,564.332,-5800.51,1708.19
1113,0,-0.0935253,-0.400485,-0.279504,0.867607,-35.8282,-5352.26,1630.1,0.713657,-0.192212,0.665848,0.101955,-345.616,-5745.01,1699.07,-0.34784,-0.254559,-0.250568,0.866846,717.735,-5577.29,1649.96,-0.0996739,-0.206644,-0.264202,0.936782,793.721,-5458.08,1605.07,,,,,,,,-0.0942762,-0.220152,0.0550392,0.969338,-101.395,-5449.99,1640.54,-0.144327,-0.467564,-0.424852,0.761613,-317.695,-5906.44,1713.45,0.302215,-0.728946,0.304342,0.533554,-70.9797,-6031.48,1694.65,-0.168613,-0.224659,-0.764245,0.580541,-415.166,-6174.55,1733.83,-0.189336,-0.341874,-0.459881,0.79736,564.065,-5800.24,1707.98
1114,0,-0.0928751,-0.403799,-0.279149,0.866254,-36.36,-5352.21,1630.17,0.712506,-0.195191,0.666018,0.103223,-344.768,-5744.77,1698.64,-0.348998,-0.253494,-0.25165,0.866379,717.789,-5577.52,1649.97,-0.103666,-0.198163,-0.264413,0.938121,793.826,-5458.86,1604.99,,,,,,,,-0.095732,-0.206158,0.0538627,0.972334,-101.018,-5450.25,1640.08,-0.149142,-0.457704,-0.432663,0.762277,-317.411,-5906.33,1713.55,0.307604,-0.728684,0.292277,0.537562,-71.1887,-6030.79,1695.02,-0.168325,-0.224977,-0.765634,0.578668,-415.136,-6174.56,1733.88,-0.190145,-0.3417,-0.45885,0.797836,563.921,-5800.36,1707.95
1115,0,-0.0911374,-0.405496,-0.28187,0.864764,-36.4426,-5352.33,1630.24,0.71254,-0.199913,0.664729,0.102258,-344.932,-5745.24,1698.78,-0.350266,-0.251951,-0.251954,0.86623,717.754,-5577.66,1649.92,-0.125809,-0.16353,-0.273067,0.939609,793.766,-5459.66,1604.5,,,,,,,,-0.10431,-0.218865,0.0574879,0.968459,-101.457,-5450.11,1639.64,-0.146286,-0.457437,-0.436497,0.760804,-317.411,-5906.3,1713.51,0.312348,-0.725004,0.290149,0.540945,-70.9329,-6030.93,1695.29,-0.168945,-0.225223,-0.764621,0.57973,-415.174,-6174.56,1733.95,-0.191446,-0.340775,-0.457676,0.798595,564.035,-5800.41,1707.97
1116,0,-0.0914686,-0.405259,-0.278538,0.865919,-36.3156,-5352.5,1630.22,0.712061,-0.205522,0.664915,0.0928394,-344.048,-5745.27,1698.42,-0.351556,-0.249868,-0.252072,0.866276,717.765,-5577.75,1649.92,-0.107454,-0.208571,-0.356096,0.904515,792.144,-5461.48,1604.01,,,,,,,,-0.106355,-0.22413,0.0597161,0.966896,-101.748,-5450.22,1639.45,-0.145082,-0.457195,-0.438323,0.760129,-317.356,-5906.26,1713.5,0.31541,-0.721301,0.289367,0.544526,-70.7976,-6031.24,1695.5,-0.169742,-0.225483,-0.763186,0.581284,-415.118,-6174.71,1733.94,-0.192741,-0.332061,-0.458132,0.801687,564.473,-5800.83,1708.07
1117,0,-0.0918243,-0.404082,-0.275703,0.867337,-36.252,-5352.63,1630.14,0.713088,-0.20867,0.663461,0.0882148,-344.111,-5745.54,1698.65,-0.352583,-0.24884,-0.252896,0.865914,717.846,-5577.76,1649.94,-0.111661,-0.180465,-0.362719,0.907413,792.971,-5462.63,1604.75,,,,,,,,-0.107772,-0.237196,0.0616202,0.963497,-102.322,-5450.06,1638.85,-0.14485,-0.457028,-0.4378,0.760576,-317.367,-5906.24,1713.43,0.318425,-0.721189,0.286386,0.544495,-70.3862,-6031.56,1695.59,-0.168027,-0.224361,-0.764984,0.579852,-414.99,-6174.91,1733.96,-0.191035,-0.339156,-0.45632,0.800157,564.149,-5800.55,1707.99
1118,0,-0.0922678,-0.403972,-0.272978,0.868203,-36.1632,-5352.83,1630.18,0.713729,-0.211184,0.661846,0.0891707,-343.839,-5745.77,1698.77,-0.352976,-0.249525,-0.254283,0.865151,717.864,-5577.68,1649.88,-0.115429,-0.166171,-0.36167,0.910087,793.8,-5462.85,1604.79,,,,,,,,-0.10755,-0.223108,0.060453,0.966955,-102.308,-5450.4,1638.19,-0.143948,-0.45315,-0.440997,0.76122,-317.696,-5906.2,1713.29,0.318041,-0.725987,0.291595,0.535504,-70.946,-6031.83,1695.59,-0.169383,-0.223636,-0.764738,0.580062,-414.78,-6175.02,1733.93,-0.191515,-0.341665,-0.455102,0.799668,564.246,-5800.74,1707.84
1119,0,-0.093795,-0.403552,-0.270961,0.868866,-36.1025,-5353.02,1630.24,0.711526,-0.215868,0.662644,0.0896387,-343.572,-5745.92,1698.83,-0.353604,-0.248823,-0.255218,0.864821,718.043,-5577.6,1649.95,-0.100439,-0.167498,-0.385481,0.90181,792.922,-5463.01,1603.66,,,,,,,,-0.0958654,-0.199738,0.059788,0.973314,-103.601,-5449.56,1637.75,-0.142299,-0.452007,-0.44185,0.761715,-317.571,-5906.18,1713.23,0.318513,-0.708952,0.269685,0.568513,-69.9457,-6032.54,1695.43,-0.166598,-0.22207,-0.764273,0.58208,-414.626,-6175.35,1733.84,-0.192178,-0.339939,-0.454408,0.800638,564.347,-5800.75,1707.84
1120,0,-0.0940405,-0.403506,-0.269959,0.869173,-36.1003,-5353.12,1630.29,0.711299,-0.219795,0.661346,0.0914583,-343.25,-5746.08,1698.98,-0.3549,-0.245687,-0.255022,0.865244,718.539,-5577.5,1650.17,-0.10151,-0.165284,-0.382956,0.903173,792.581,-5463.19,1603.66,,,,,,,,-0.0939597,-0.194645,0.0586435,0.9746,-103.076,-5449.37,1638.16,-0.141461,-0.45101,-0.442938,0.76183,-317.546,-5906.17,1713.17,0.321358,-0.714954,0.282637,0.55289,-69.6844,-6031.85,1696.48,-0.167101,-0.221511,-0.763696,0.582905,-414.456,-6175.53,1733.75,-0.191788,-0.34429,-0.450706,0.800966,564.157,-5800.48,1707.92
1121,0,-0.0926684,-0.403994,-0.271123,0.868731,-36.0486,-5353.23,1630.46,0.7132,-0.22847,0.656912,0.0872592,-342.938,-5746.38,1699.15,-0.353994,-0.246447,-0.256182,0.865056,718.496,-5577.42,1650.07,-0.118186,-0.149336,-0.379029,0.905576,794.435,-5463.15,1605.06,,,,,,,,-0.0876279,-0.183553,0.0578895,0.977383,-102.529,-5449.15,1638.58,-0.140943,-0.450517,-0.443339,0.761985,-317.52,-5906.15,1713.12,0.326438,-0.707858,0.283307,0.55867,-69.8108,-6031.47,1696.82,-0.166932,-0.219617,-0.761945,0.585954,-414.257,-6175.74,1733.57,-0.194173,-0.340736,-0.449543,0.802563,564.473,-5800.7,1707.99
1122,0,-0.0909471,-0.403404,-0.273444,0.86846,-36.1102,-5353.34,1630.61,0.716584,-0.234032,0.652113,0.0805307,-342.713,-5746.64,1699.4,-0.353895,-0.247257,-0.257493,0.864477,718.558,-5577.31,1649.99,-0.137282,-0.176668,-0.373696,0.900163,792.536,-5462.03,1603.53,,,,,,,,-0.0859468,-0.221044,0.0643324,0.969337,-101.313,-5449.17,1639.56,-0.141052,-0.449589,-0.44308,0.762662,-317.424,-5906.17,1713.09,0.33226,-0.705912,0.292267,0.553057,-70.1613,-6031.26,1697.25,-0.166751,-0.217523,-0.760141,0.589121,-414.164,-6175.92,1733.47,-0.193906,-0.339518,-0.449183,0.803345,564.553,-5800.76,1707.91
1123,0,-0.0906454,-0.405521,-0.27632,0.866593,-36.2284,-5353.38,1630.82,0.721535,-0.23872,0.644269,0.0855444,-342.07,-5746.1,1698.53,-0.353805,-0.246411,-0.25842,0.864478,718.71,-5577.27,1649.98,-0.120608,-0.201655,-0.370244,0.898726,791.368,-5462.35,1603.43,,,,,,,,-0.0847829,-0.232725,0.0678324,0.966462,-102.366,-5448.33,1639.02,-0.141402,-0.448303,-0.440396,0.764906,-317.276,-5906.04,1713.12,0.335618,-0.705166,0.297985,0.548914,-70.167,-6031.16,1697.31,-0.167781,-0.215974,-0.758996,0.590873,-413.992,-6176.02,1733.44,-0.193241,-0.340076,-0.449246,0.803234,564.561,-5800.76,1707.89
1124,0,-0.0928216,-0.40648,-0.275267,0.866249,-36.2472,-5353.46,1631.01,0.722972,-0.246412,0.638875,0.0918207,-343.235,-5746.57,1699.22,-0.353857,-0.244885,-0.258953,0.864731,718.919,-5577.25,1650.01,-0.0925079,-0.232707,-0.364367,0.896954,790.673,-5462.52,1604.83,,,,,,,,-0.0830146,-0.235492,0.0714693,0.965683,-102.586,-5447.82,1638.93,-0.140405,-0.449352,-0.443333,0.762774,-317.313,-5906.15,1713.07,0.338562,-0.703972,0.301853,0.54652,-70.3461,-6030.82,1697.38,-0.173049,-0.21283,-0.758757,0.590801,-413.471,-6175.91,1733.52,-0.19302,-0.340145,-0.44924,0.803261,564.554,-5800.8,1707.85
1125,0,-0.0927065,-0.407823,-0.277145,0.86503,-36.3084,-5353.51,1631.03,0.719253,-0.248432,0.642212,0.0923099,-342.734,-5746.84,1699.18,-0.35375,-0.243946,-0.25983,0.864777,719.03,-5577.24,1649.99,-0.0512106,-0.308483,-0.345779,0.884677,789.144,-5462.42,1607.66,,,,,,,,-0.0829322,-0.230142,0.0749034,0.966719,-102.414,-5447.69,1638.75,-0.141652,-0.446815,-0.440487,0.765678,-317.16,-5906.06,1713.08,0.34209,-0.70066,0.304475,0.547124,-70.3619,-6031.05,1697.27,-0.169893,-0.213807,-0.759893,0.589903,-413.666,-6175.99,1733.51,-0.193151,-0.339362,-0.449297,0.803529,564.564,-5800.79,1707.85
1126,0,-0.0940391,-0.405818,-0.27576,0.866271,-36.1462,-5353.59,1630.96,0.718056,-0.254362,0.640533,0.0970172,-342.819,-5746.78,1699.2,-0.354248,-0.24151,-0.260014,0.865202,719.266,-5577.23,1650.09,-0.0303282,-0.344068,-0.332816,0.877457,788.361,-5461.14,1609.61,,,,,,,,-0.0854235,-0.227905,0.0772465,0.966848,-102.454,-5447.48,1638.73,-0.144453,-0.446741,-0.436575,0.767436,-317.118,-5906.15,1713.02,0.343593,-0.700287,0.309167,0.54402,-70.5796,-6030.99,1697.51,-0.169726,-0.213426,-0.76068,0.589074,-413.571,-6175.97,1733.55,-0.193121,-0.339735,-0.449494,0.803268,564.609,-5800.77,1707.87
1127,0,-0.09394,-0.404219,-0.276736,0.866718,-36.065,-5353.61,1630.69,0.71126,-0.257551,0.646687,0.0978448,-342.159,-5746.61,1698.6,-0.354497,-0.239565,-0.260438,0.865513,719.384,-5577.25,1650.14,-0.0269908,-0.335331,-0.32587,0.883535,788.595,-5462.15,1608.99,,,,,,,,-0.0871721,-0.227808,0.080624,0.966439,-102.587,-5447.33,1638.81,-0.144658,-0.445646,-0.435353,0.768727,-317.037,-5906.15,1712.9,0.346241,-0.698636,0.312313,0.542665,-70.2381,-6031.21,1697.54,-0.171351,-0.212381,-0.760748,0.588894,-413.419,-6175.91,1733.6,-0.194283,-0.338055,-0.449468,0.803711,564.776,-5800.74,1707.99
1128,0,-0.0954936,-0.402132,-0.274918,0.868096,-35.8924,-5353.66,1630.47,0.708127,-0.265031,0.646023,0.104736,-343.037,-5746.9,1699.18,-0.355136,-0.23776,-0.261135,0.865538,719.525,-5577.29,1650.18,-0.042417,-0.301336,-0.324953,0.895435,788.846,-5463.37,1607.32,,,,,,,,-0.0871961,-0.231084,0.08265,0.965487,-102.763,-5447.36,1638.83,-0.142975,-0.451248,-0.437044,0.764804,-316.675,-5906.22,1712.77,0.341938,-0.696188,0.314344,0.547346,-69.8207,-6031.98,1697.45,-0.172745,-0.212513,-0.760868,0.588284,-413.35,-6175.8,1733.65,-0.195772,-0.34255,-0.445773,0.803505,564.604,-5800.38,1708.02
1129,0,-0.0926449,-0.4088,-0.273348,0.865783,-35.8753,-5353.5,1630.32,0.709148,-0.268855,0.64275,0.108155,-342.881,-5746.64,1699.05,-0.355452,-0.236657,-0.26212,0.865413,719.628,-5577.35,1650.2,-0.0475777,-0.280617,-0.326807,0.901214,789.245,-5463.93,1606.62,,,,,,,,-0.0865565,-0.233053,0.0850835,0.96486,-102.919,-5447.39,1638.78,-0.143528,-0.450404,-0.43883,0.764176,-316.589,-5906.27,1712.64,0.335892,-0.699268,0.310686,0.54925,-69.1093,-6032.85,1697.69,-0.174523,-0.212057,-0.761013,0.587735,-413.237,-6175.71,1733.71,-0.19661,-0.341739,-0.445211,0.803956,564.555,-5800.44,1708.09
1130,0,-0.0942385,-0.406956,-0.271058,0.867199,-35.7234,-5353.52,1629.98,0.715457,-0.270548,0.63417,0.112928,-343.815,-5746.63,1699.94,-0.355382,-0.236038,-0.263289,0.865257,719.662,-5577.45,1650.14,-0.0442478,-0.275248,-0.326563,0.903127,790.082,-5463.8,1606.85,,,,,,,,-0.08515,-0.234006,0.0881752,0.964477,-102.995,-5447.39,1638.77,-0.145211,-0.443685,-0.437539,0.768516,-316.808,-5906.18,1712.36,0.34245,-0.691432,0.309612,0.555689,-69.029,-6033.38,1697.89,-0.174927,-0.211732,-0.761787,0.586729,-413.147,-6175.65,1733.74,-0.198538,-0.336549,-0.445085,0.80574,564.848,-5800.68,1708.09
1131,0,0.590525,0.56774,-0.452924,0.351868,375.454,-5950.57,1692.44,0.71281,-0.278794,0.636857,0.0926773,-343.097,-5746.67,1698.84,-0.355406,-0.235756,-0.264544,0.864941,719.648,-5577.55,1650.02,-0.0412009,-0.288815,-0.321176,0.900963,789.033,-5463.45,1605.58,,,,,,,,-0.084572,-0.229118,0.0891206,0.965614,-103.035,-5447.07,1638.63,-0.146771,-0.443353,-0.435008,0.769847,-316.657,-5906.23,1712.48,0.347042,-0.692216,0.321125,0.545232,-69.376,-6034.19,1697.91,-0.176016,-0.211528,-0.76188,0.586355,-412.992,-6175.61,1733.69,-0.196297,-0.338963,-0.445621,0.80498,564.538,-5800.5,1708.01
1132,0,0.584319,0.56823,-0.462998,0.348309,375.251,-5950.48,1692.99,0.719504,-0.282165,0.626861,0.098702,-344.212,-5746.82,1699.54,-0.353889,-0.240442,-0.267096,0.863487,719.205,-5577.67,1649.67,-0.0434776,-0.28892,-0.313991,0.903352,789.432,-5463.37,1605.17,,,,,,,,-0.0838287,-0.220186,0.0886364,0.967799,-103.028,-5446.54,1638.09,-0.147783,-0.444359,-0.432585,0.770438,-316.72,-5906.21,1712.41,0.341666,-0.704553,0.337077,0.522731,-69.9832,-6034.71,1697.71,-0.176727,-0.210291,-0.761322,0.587311,-412.809,-6175.66,1733.67,-0.198439,-0.334395,-0.446006,0.806152,564.767,-5800.72,1708.07
1133,0,0.573734,0.569398,-0.482089,0.337942,375.077,-5949.91,1692.85,0.722958,-0.285872,0.620498,0.102914,-344.442,-5746.83,1699.38,-0.354099,-0.243204,-0.266335,0.862862,719.095,-5577.78,1649.51,-0.0444677,-0.286915,-0.311619,0.904763,789.62,-5463.4,1604.93,,,,,,,,-0.0834138,-0.206861,0.0872278,0.970897,-102.802,-5446.12,1638.98,-0.152069,-0.443599,-0.432561,0.770056,-316.587,-5906.31,1712.25,0.34397,-0.705577,0.329807,0.524474,-70.5232,-6035.68,1697.36,-0.174903,-0.210796,-0.761815,0.587036,-412.765,-6175.72,1733.61,-0.197387,-0.334133,-0.446974,0.805983,564.64,-5800.8,1708
1134,0,,,,,,,,0.715705,-0.312443,0.621082,0.0663517,-345.096,-5747.19,1699.21,-0.354319,-0.244229,-0.26516,0.862844,718.935,-5577.86,1649.36,-0.0455542,-0.283424,-0.308033,0.907034,789.758,-5463.29,1604.7,-0.321546,-0.405881,-0.667149,0.535519,362.481,-5946.33,1693.39,,,,,,,,-0.151131,-0.440982,-0.43428,0.770775,-316.363,-5906.36,1712.16,0.341701,-0.711009,0.325812,0.521107,-71.0329,-6036.78,1696.78,-0.173999,-0.210531,-0.761753,0.58748,-412.66,-6175.82,1733.58,-0.195746,-0.336218,-0.448102,0.804889,564.456,-5800.56,1708.06
1135,0,,,,,,,,0.71879,-0.313159,0.617832,0.0596376,-344.369,-5747.16,1698.05,-0.354172,-0.240282,-0.264141,0.864324,719.198,-5578,1649.51,-0.0441671,-0.279981,-0.309012,0.907839,789.928,-5463.15,1604.64,-0.323314,-0.405383,-0.673358,0.526993,362.987,-5946.42,1694.02,,,,,,,,-0.140589,-0.454288,-0.428517,0.768264,-317.209,-5906.53,1712.06,0.334853,-0.728964,0.336158,0.49344,-71.5754,-6037.86,1696.54,-0.173347,-0.20943,-0.762842,0.586653,-412.507,-6175.84,1733.58,-0.193984,-0.338984,-0.448954,0.803679,564.274,-5800.56,1707.93
1136,0,,,,,,,,0.718878,-0.319208,0.614813,0.0576579,-344.764,-5747.16,1697.67,-0.353929,-0.238369,-0.263835,0.865046,719.323,-5578.09,1649.62,-0.0405303,-0.273919,-0.314697,0.907905,789.93,-5462.61,1604.67,-0.31833,-0.408819,-0.676679,0.523104,362.565,-5946.64,1694.09,,,,,,,,-0.147913,-0.444526,-0.428933,0.772357,-316.661,-5906.2,1712.31,0.338897,-0.729492,0.32954,0.494362,-71.8255,-6038.5,1696.2,-0.170519,-0.208737,-0.765478,0.58429,-412.372,-6175.97,1733.51,-0.194418,-0.344481,-0.447962,0.801788,564.219,-5800.55,1707.89
1137,0,,,,,,,,0.714148,-0.325362,0.617067,0.0579666,-345.768,-5747.27,1697.35,-0.353539,-0.238849,-0.265254,0.864639,719.411,-5578.1,1649.62,-0.0397246,-0.272773,-0.317868,0.907181,790.497,-5462.58,1605.23,-0.324479,-0.402484,-0.684127,0.51448,363.999,-5946.51,1693.86,0.43186,-0.0257493,-0.878615,0.202163,-106.95,-5450.09,1645.46,-0.144019,-0.450769,-0.431205,0.768198,-316.29,-5906.21,1712.43,0.342011,-0.726448,0.316458,0.505129,-71.7813,-6038.99,1696.2,-0.170044,-0.207842,-0.764548,0.585963,-412.266,-6176.1,1733.5,-0.194605,-0.343599,-0.447195,0.802549,564.193,-5800.31,1708.05
1138,0,,,,,,,,0.709463,-0.328021,0.620599,0.0626235,-346.08,-5746.96,1696.59,-0.353602,-0.237179,-0.265779,0.864913,719.538,-5578.11,1649.71,-0.0407131,-0.273857,-0.319918,0.906089,790.482,-5462.66,1605.38,-0.275496,-0.432035,-0.704452,0.491116,361.524,-5945.68,1693.09,0.424841,-0.0244448,-0.88228,0.201231,-106.74,-5450.75,1645.98,-0.142405,-0.447392,-0.434072,0.768858,-316.814,-5906.1,1712.49,0.343542,-0.725417,0.314091,0.507046,-71.9362,-6039.13,1696.24,-0.170873,-0.205507,-0.762526,0.589172,-412.063,-6176.29,1733.41,-0.194675,-0.342677,-0.446852,0.803117,564.281,-5800.26,1708.14
1139,0,,,,,,,,0.697462,-0.332589,0.631468,0.0646477,-346.967,-5746.15,1695.29,-0.353356,-0.236927,-0.266794,0.86477,719.603,-5578.13,1649.76,-0.0402099,-0.281097,-0.319926,0.903889,790.28,-5462.49,1605.55,-0.27228,-0.431144,-0.711111,0.484045,361.273,-5946.73,1693.22,0.415905,-0.0226421,-0.886827,0.200119,-106.327,-5451.24,1646.61,-0.140011,-0.446674,-0.43533,0.769004,-316.872,-5905.99,1712.5,0.345232,-0.725628,0.311242,0.507354,-72.2512,-6039.19,1696.34,-0.170058,-0.204608,-0.762506,0.589747,-411.917,-6176.4,1733.27,-0.194686,-0.340451,-0.446942,0.804011,564.627,-5800.47,1708.3
1140,0,-0.0897635,-0.365712,-0.335623,0.863455,-34.9941,-5354.42,1628.55,0.688591,-0.337219,0.638402,0.0675983,-347.179,-5745.9,1694.22,-0.353213,-0.237453,-0.267757,0.864386,719.566,-5578.13,1649.72,-0.0426911,-0.285795,-0.316197,0.903614,790.126,-5462.36,1605.94,-0.247436,-0.456319,-0.713332,0.470857,358.546,-5944.96,1692.16,0.406584,-0.0179614,-0.891316,0.199805,-105.994,-5451.62,1647.06,-0.136874,-0.445656,-0.439092,0.76802,-317.035,-5905.87,1712.4,0.348802,-0.724292,0.310453,0.507305,-72.5195,-6039.07,1696.45,-0.175802,-0.20331,-0.764678,0.585684,-411.383,-6176.14,1733.11,-0.194357,-0.340286,-0.447586,0.803802,564.566,-5800.43,1708.28
1141,0,-0.0741897,-0.386146,-0.317703,0.862817,-35.6957,-5353.75,1628.35,0.680294,-0.343469,0.644511,0.0619192,-346.693,-5745.3,1692.55,-0.353139,-0.237839,-0.269176,0.863869,719.642,-5578.19,1649.76,-0.0446191,-0.289034,-0.315241,0.902824,790.081,-5462.23,1606.16,-0.252499,-0.437907,-0.722753,0.471286,361.947,-5946.28,1691.14,0.401771,-0.0140242,-0.894287,0.196556,-105.597,-5451.95,1647.64,-0.135803,-0.443796,-0.440056,0.768735,-317.233,-5905.79,1712.35,0.351228,-0.723409,0.304098,0.510727,-73.0013,-6039.06,1696.45,-0.170829,-0.20277,-0.763849,0.588418,-411.526,-6176.44,1733.03,-0.194512,-0.339887,-0.448052,0.803673,564.493,-5800.4,1708.28
1142,0,-0.0755569,-0.382737,-0.315995,0.864842,-35.5735,-5353.97,1628.18,0.674155,-0.349455,0.648234,0.0564651,-346.996,-5745.09,1691.12,-0.352631,-0.235004,-0.271243,0.864206,719.715,-5578.25,1649.81,-0.0435132,-0.289364,-0.315266,0.902764,789.772,-5461.72,1606.17,-0.272113,-0.418299,-0.725044,0.474649,363.317,-5946.31,1690.83,0.400485,-0.0115147,-0.895504,0.19378,-105.522,-5452.19,1648.03,-0.135779,-0.444442,-0.438089,0.769489,-317.474,-5905.74,1712.26,0.352931,-0.725758,0.29975,0.508788,-73.3369,-6039.1,1696.3,-0.175423,-0.199616,-0.763294,0.588866,-411.158,-6176.4,1732.87,-0.194273,-0.339055,-0.44915,0.80347,564.518,-5800.4,1708.34
1143,0,-0.0752845,-0.384408,-0.312428,0.86542,-35.539,-5353.98,1628.12,0.658675,-0.371113,0.654043,0.0254911,-347.736,-5745.01,1690.01,-0.352717,-0.237697,-0.272069,0.863174,719.518,-5578.3,1649.65,-0.0434811,-0.274846,-0.317997,0.906337,790.818,-5461.8,1607.17,-0.27372,-0.411733,-0.725613,0.478581,364.112,-5946.42,1690.53,-0.193419,-0.299175,0.129732,0.925339,-107.758,-5444.78,1645.76,-0.135374,-0.443137,-0.437393,0.770707,-317.747,-5905.7,1712.29,0.355445,-0.726472,0.294171,0.509274,-73.7385,-6038.89,1696.12,-0.17482,-0.198602,-0.764722,0.587533,-411.09,-6176.46,1732.75,-0.191847,-0.342736,-0.450374,0.801804,563.95,-5800.15,1708.15
1144,0,-0.0773855,-0.38266,-0.310078,0.866853,-35.3848,-5354.11,1628.15,0.663397,-0.378416,0.644569,0.0351665,-347.4,-5744.02,1689.02,-0.352337,-0.235703,-0.272969,0.863592,719.529,-5578.38,1649.61,-0.0442414,-0.280273,-0.315453,0.905527,790.42,-5461.95,1606.8,-0.299103,-0.386319,-0.724485,0.486226,366.893,-5946.95,1690.33,-0.191744,-0.289441,0.130517,0.928668,-107.538,-5444.91,1646.26,-0.136076,-0.44193,-0.437161,0.771409,-317.988,-5905.63,1712.39,0.353259,-0.732166,0.290612,0.504663,-74.1655,-6038.59,1695.98,-0.16945,-0.198843,-0.764526,0.589278,-411.434,-6176.73,1732.7,-0.192487,-0.3429,-0.451171,0.801132,563.975,-5800.31,1708.1
1145,0,-0.0797147,-0.3828,-0.307452,0.867516,-35.4042,-5354.12,1628.28,0.64962,-0.374085,0.661155,0.0304543,-348.125,-5744.22,1687.83,-0.352546,-0.234671,-0.272313,0.863994,719.445,-5578.45,1649.49,-0.0433588,-0.282025,-0.3142,0.905461,790.304,-5461.87,1606.78,-0.303232,-0.373434,-0.72467,0.493407,368.516,-5947.09,1689.98,-0.187218,-0.280529,0.132416,0.932051,-107.342,-5444.94,1646.82,-0.138264,-0.443783,-0.42865,0.774725,-318.397,-5905.48,1712.5,0.351017,-0.732844,0.285804,0.507979,-74.2055,-6038.16,1696.01,-0.173507,-0.197278,-0.764301,0.588915,-411.101,-6176.62,1732.74,-0.192815,-0.341925,-0.452138,0.800925,563.843,-5800.31,1708.08
1146,0,-0.0817175,-0.383942,-0.304831,0.867749,-35.4494,-5354.11,1628.45,0.640301,-0.362999,0.676409,0.0267963,-348.017,-5744.33,1686.97,-0.352012,-0.238307,-0.274287,0.862592,719.149,-5578.46,1649.24,-0.0429352,-0.282402,-0.312317,0.906016,790.015,-5461.82,1606.7,-0.305328,-0.36637,-0.723649,0.498879,370.007,-5947.45,1689.22,-0.153729,-0.293246,0.0437427,0.942582,-106.404,-5444.89,1647.76,-0.139243,-0.440677,-0.428674,0.776307,-318.54,-5905.56,1712.51,0.348575,-0.732929,0.288919,0.507776,-74.5425,-6038.26,1696.19,-0.174559,-0.198599,-0.764398,0.588034,-411.085,-6176.53,1732.77,-0.193694,-0.347193,-0.448234,0.800641,563.595,-5799.94,1708.15
1147,0,-0.0869725,-0.384243,-0.300752,0.868529,-35.3426,-5354.11,1628.49,0.627261,-0.357421,0.691662,0.0199505,-348.102,-5743.88,1685.69,-0.352427,-0.23776,-0.274255,0.862583,719.118,-5578.44,1649.18,-0.0429194,-0.281724,-0.310515,0.906846,789.781,-5461.8,1606.68,-0.306418,-0.358495,-0.721682,0.506719,371.401,-5947.47,1689.01,-0.152594,-0.301837,0.0475619,0.939865,-106.276,-5444.48,1647.94,-0.138591,-0.439795,-0.428682,0.77692,-318.837,-5905.63,1712.52,0.345523,-0.730124,0.288195,0.514272,-74.5947,-6038.72,1696.36,-0.175639,-0.199915,-0.763306,0.588684,-411.098,-6176.54,1732.78,-0.195816,-0.341469,-0.448117,0.802649,563.821,-5800.2,1708.25
1148,0,-0.0869528,-0.384085,-0.298302,0.869444,-35.4585,-5354.22,1628.63,0.620009,-0.352107,0.700882,0.01935,-347.747,-5743.47,1684.74,-0.352189,-0.236834,-0.273356,0.86322,719.126,-5578.45,1649.23,-0.0436272,-0.279996,-0.309432,0.907717,789.664,-5461.76,1606.8,-0.311971,-0.354106,-0.717343,0.512546,373.038,-5947.35,1689.28,-0.151919,-0.299589,0.0502699,0.940553,-106.279,-5444.22,1648.03,-0.139964,-0.43838,-0.432852,0.775159,-319.091,-5905.73,1712.43,0.34933,-0.72723,0.286109,0.516959,-74.7293,-6039.07,1696.11,-0.17357,-0.199839,-0.761963,0.591059,-411.148,-6176.74,1732.83,-0.193085,-0.343696,-0.44852,0.802135,563.575,-5800.19,1708.16
1149,0,-0.0911014,-0.383036,-0.293645,0.871066,-35.2294,-5354.23,1628.6,0.617751,-0.342311,0.703802,0.0766196,-348.069,-5743.73,1684.48,-0.351224,-0.23651,-0.272815,0.863873,719.133,-5578.49,1649.31,-0.0438608,-0.278494,-0.308448,0.908503,789.661,-5461.75,1607,-0.328964,-0.351906,-0.708384,0.515884,375.375,-5947.5,1689.94,-0.188541,-0.304266,0.119848,0.926019,-107.691,-5444.06,1647.34,-0.139341,-0.441864,-0.434689,0.77226,-319.143,-5905.82,1712.36,0.353744,-0.730302,0.290458,0.507108,-75.029,-6039.41,1695.64,-0.172057,-0.199291,-0.761423,0.592381,-411.125,-6176.86,1732.81,-0.188839,-0.348563,-0.448315,0.80116,563.158,-5800.01,1708.18
1150,0,-0.0924507,-0.382492,-0.291703,0.871816,-35.2007,-5354.31,1628.6,0.617237,-0.347616,0.701976,0.0735608,-348.623,-5744.05,1684.43,-0.35075,-0.240074,-0.273789,0.862774,718.825,-5578.41,1649.2,-0.0443897,-0.27665,-0.307354,0.909411,789.478,-5461.71,1607.12,-0.330385,-0.358436,-0.703242,0.517514,376.742,-5947.06,1690.39,-0.187569,-0.297417,0.120922,0.928299,-107.57,-5443.96,1648.11,-0.141156,-0.436658,-0.440917,0.771361,-319.646,-5905.87,1712.26,0.357251,-0.733374,0.293088,0.498632,-75.1869,-6039.85,1695.3,-0.170587,-0.198447,-0.761284,0.593266,-411.019,-6176.94,1732.83,-0.18933,-0.346354,-0.448409,0.801949,563.368,-5800.17,1708.15
1151,0,-0.0935969,-0.379873,-0.290514,0.873234,-35.071,-5354.43,1628.61,0.622737,-0.349663,0.696411,0.0703291,-349.305,-5744.82,1684.66,-0.350816,-0.240366,-0.271514,0.863384,718.771,-5578.42,1649.33,-0.0450079,-0.276104,-0.305089,0.910308,789.309,-5461.65,1607.25,-0.345561,-0.348654,-0.690393,0.5314,379.88,-5947.26,1691.38,-0.184577,-0.298263,0.124522,0.928151,-107.689,-5443.96,1648.65,-0.140148,-0.435551,-0.445055,0.769792,-319.849,-5905.88,1712.2,0.361919,-0.733333,0.289329,0.49752,-75.2314,-6040.57,1694.95,-0.170452,-0.198779,-0.762244,0.59196,-410.95,-6176.91,1732.79,-0.188242,-0.34653,-0.448385,0.802143,563.161,-5800.16,1708.09
1152,0,-0.0940168,-0.381095,-0.288119,0.87345,-35.1787,-5354.4,1628.58,0.629612,-0.360847,0.68802,-0.0024337,-349.434,-5745.44,1684.91,-0.350419,-0.23982,-0.273014,0.863225,718.673,-5578.46,1649.4,-0.0488456,-0.284359,-0.306293,0.90716,788.37,-5460.89,1606.83,-0.348101,-0.34578,-0.685324,0.538139,381.941,-5947.11,1691.97,-0.18266,-0.296608,0.126602,0.928779,-107.901,-5443.95,1648.83,-0.13981,-0.43518,-0.447497,0.768647,-319.975,-5905.93,1712.22,0.355793,-0.742002,0.28701,0.490376,-74.6303,-6041.47,1694.91,-0.167075,-0.197942,-0.763147,0.59204,-410.979,-6177.12,1732.78,-0.18413,-0.350537,-0.448692,0.801184,562.77,-5800.18,1707.94
1153,0,-0.0960495,-0.382599,-0.286369,0.873147,-35.0627,-5354.46,1628.66,0.634397,-0.359576,0.684283,-0.00168185,-349.733,-5745.75,1685.17,-0.35064,-0.238079,-0.27346,0.863475,718.585,-5578.52,1649.49,-0.0484877,-0.295911,-0.302831,0.904643,788.852,-5461.24,1607.33,-0.350964,-0.337359,-0.678123,0.550601,382.709,-5946.92,1692.55,-0.181495,-0.29324,0.127745,0.92992,-107.843,-5444.03,1649.13,-0.139758,-0.433781,-0.449302,0.768394,-320.072,-5905.91,1712.27,0.35827,-0.742548,0.286842,0.487839,-74.3692,-6041.55,1694.86,-0.167139,-0.19706,-0.763405,0.591984,-410.909,-6177.18,1732.77,-0.187368,-0.348314,-0.451129,0.800033,562.667,-5800.28,1707.63
1154,0,-0.0972799,-0.38154,-0.285211,0.873853,-34.9646,-5354.54,1628.83,0.633127,-0.362664,0.683831,0.00042148,-349.62,-5745.58,1685.1,-0.35149,-0.236867,-0.274063,0.863272,718.54,-5578.51,1649.55,-0.0489879,-0.29596,-0.300412,0.905406,788.57,-5461.23,1607.41,-0.361407,-0.329084,-0.670621,0.557992,381.815,-5946.93,1692.1,-0.179858,-0.29116,0.129753,0.930613,-107.849,-5443.95,1649.38,-0.140194,-0.43411,-0.448686,0.768489,-320.185,-5905.9,1712.35,0.362695,-0.742454,0.291582,0.481865,-74.1375,-6041.76,1695.13,-0.166564,-0.196816,-0.763042,0.592695,-410.944,-6177.25,1732.81,-0.183332,-0.355024,-0.45178,0.797648,562.219,-5799.99,1707.77
1155,0,-0.0986543,-0.380048,-0.282376,0.875268,-34.9396,-5354.6,1629.01,0.633326,-0.365322,0.68223,-0.000498696,-349.686,-5745.51,1685.07,-0.349933,-0.239307,-0.281864,0.860716,718.411,-5578.49,1649.57,-0.0509876,-0.297646,-0.298964,0.905223,788.452,-5461.16,1607.6,-0.357739,-0.331703,-0.669891,0.55968,381.801,-5946.91,1691.9,-0.178389,-0.290799,0.131671,0.93074,-107.905,-5443.95,1649.72,-0.140549,-0.433719,-0.448712,0.76863,-320.21,-5905.85,1712.39,0.364272,-0.745089,0.299898,0.471391,-74.1694,-6042.1,1695.2,-0.171146,-0.194501,-0.760039,0.596002,-410.862,-6177.34,1732.98,-0.187804,-0.350083,-0.453457,0.79784,562.248,-5800.16,1707.65
1156,0,-0.0974569,-0.383483,-0.281261,0.874262,-35.0656,-5354.6,1628.91,0.628593,-0.364988,0.68677,0.00114305,-349.733,-5745.46,1684.63,-0.350492,-0.238157,-0.280445,0.861271,718.347,-5578.52,1649.66,-0.0529831,-0.297782,-0.298893,0.905087,788.491,-5461.09,1607.72,-0.357516,-0.334086,-0.665942,0.563108,381.577,-5946.94,1691.82,-0.176655,-0.289726,0.133874,0.931091,-107.904,-5444.05,1649.91,-0.139487,-0.433687,-0.449811,0.768199,-320.263,-5905.84,1712.41,0.366468,-0.742948,0.301284,0.472183,-73.9453,-6042.03,1695.23,-0.166903,-0.195377,-0.762739,0.593465,-410.739,-6177.38,1732.63,-0.186772,-0.352642,-0.455848,0.795589,562.344,-5800.19,1707.73
1157,0,-0.0979749,-0.383934,-0.279527,0.874563,-34.9743,-5354.62,1628.99,0.620816,-0.364722,0.69395,0.00019546,-349.89,-5745.24,1683.72,-0.349578,-0.238377,-0.284404,0.860282,718.304,-5578.54,1649.74,-0.054376,-0.297064,-0.298198,0.905469,788.613,-5461.16,1607.78,-0.34922,-0.343681,-0.669564,0.558223,380.584,-5946.95,1691.73,-0.170627,-0.29232,0.13368,0.931432,-108.112,-5444.38,1650.41,-0.136775,-0.433722,-0.448578,0.769387,-320.368,-5905.9,1712.45,0.370476,-0.73662,0.299042,0.480326,-73.6506,-6041.9,1695.21,-0.165866,-0.194953,-0.763719,0.592633,-410.725,-6177.45,1732.64,-0.185678,-0.354767,-0.457439,0.793986,561.983,-5800.21,1707.6
1158,0,-0.0990203,-0.383773,-0.277936,0.875023,-34.9103,-5354.61,1629.04,0.61009,-0.364841,0.703301,-0.00704263,-349.727,-5745.19,1683.07,-0.349945,-0.238559,-0.28365,0.860332,718.252,-5578.54,1649.76,-0.0544887,-0.299665,-0.296955,0.905014,788.495,-5461.03,1607.8,-0.345819,-0.354574,-0.670527,0.55234,379.417,-5946.69,1690.96,-0.170865,-0.302636,0.135198,0.927868,-108.759,-5444.44,1650.98,-0.139166,-0.432992,-0.448761,0.769262,-320.369,-5905.82,1712.4,0.374808,-0.728736,0.294579,0.491615,-73.5011,-6041.67,1695.16,-0.164754,-0.195497,-0.763142,0.593508,-410.906,-6177.46,1732.76,-0.18529,-0.355352,-0.458754,0.793056,561.713,-5800.19,1707.48
1159,0,-0.0993422,-0.382712,-0.276821,0.875804,-34.9142,-5354.63,1629.05,0.596477,-0.356909,0.718682,-0.018091,-349.639,-5745.05,1682.71,-0.350266,-0.23873,-0.28291,0.860398,718.219,-5578.54,1649.8,-0.0575671,-0.299206,-0.297283,0.904867,788.614,-5461.4,1607.94,-0.3374,-0.36008,-0.675937,0.547369,378.421,-5947.18,1689.7,-0.165979,-0.299907,0.137888,0.929244,-109.392,-5445.05,1651.72,-0.138313,-0.432698,-0.449996,0.76886,-320.422,-5905.82,1712.45,0.37926,-0.724773,0.297843,0.492093,-73.5063,-6041.27,1695.24,-0.169368,-0.193433,-0.760309,0.596513,-410.825,-6177.5,1732.91,-0.185824,-0.354054,-0.459929,0.792831,561.616,-5800.18,1707.5
1160,0,-0.10022,-0.384523,-0.275017,0.875479,-34.8556,-5354.68,1629.16,0.602853,-0.349485,0.717151,-0.0110638,-349.448,-5744.82,1683.06,-0.350494,-0.239361,-0.282501,0.860264,718.136,-5578.51,1649.78,-0.0566317,-0.301577,-0.303648,0.902021,789.59,-5461.92,1608.74,-0.340544,-0.356759,-0.679143,0.543615,377.69,-5946.99,1689.25,,,,,,,,-0.136304,-0.433117,-0.448093,0.770093,-320.502,-5905.94,1712.61,0.382288,-0.720376,0.297851,0.496184,-73.4754,-6040.82,1695.04,-0.169767,-0.192807,-0.760333,0.596572,-410.743,-6177.5,1732.89,-0.185525,-0.35298,-0.460132,0.793261,561.813,-5799.95,1707.9
1161,0,-0.0995009,-0.38914,-0.275748,0.873288,-34.8056,-5354.69,1629.14,0.603865,-0.336187,0.722679,0.0077883,-349.386,-5744.74,1683.22,-0.350446,-0.238589,-0.281844,0.860713,718.18,-5578.54,1649.82,-0.0248656,-0.26919,-0.373474,0.887376,790.502,-5461.99,1609.97,-0.345249,-0.351367,-0.682876,0.539468,377.534,-5947.05,1688.91,,,,,,,,-0.136075,-0.43259,-0.445663,0.771838,-320.652,-5906.04,1712.8,0.384815,-0.716815,0.298303,0.499109,-73.4531,-6040.53,1695.02,-0.16759,-0.194796,-0.759289,0.59787,-410.8,-6177.48,1732.69,-0.179136,-0.356271,-0.462004,0.79217,560.392,-5800.04,1706.85
1162,0,-0.101788,-0.387354,-0.275615,0.873861,-34.7051,-5354.69,1629.48,0.604351,-0.337785,0.721502,0.0098168,-349.258,-5744.79,1683.14,-0.350452,-0.239327,-0.281324,0.860676,718.11,-5578.55,1649.76,-0.021933,-0.274595,-0.368948,0.88769,788.965,-5461.86,1609.25,-0.331311,-0.356993,-0.68713,0.539112,377.013,-5947.19,1687.91,,,,,,,,-0.137007,-0.43312,-0.443343,0.772712,-320.636,-5906.15,1712.8,0.386968,-0.713787,0.299452,0.501091,-73.5276,-6040.23,1695.01,-0.16774,-0.194211,-0.759406,0.59787,-410.643,-6177.4,1732.67,-0.181116,-0.355011,-0.46189,0.792352,560.474,-5799.88,1706.8
1163,0,-0.102912,-0.387803,-0.273517,0.874189,-34.7422,-5354.7,1629.36,0.608274,-0.339862,0.717155,0.0136345,-349.231,-5744.45,1683.33,-0.350339,-0.238064,-0.281917,0.860878,718.185,-5578.58,1649.81,-0.0281354,-0.276912,-0.365089,0.888391,789.937,-5462.36,1610.1,-0.333205,-0.349809,-0.68094,0.55039,377.893,-5947.79,1687.96,,,,,,,,-0.138944,-0.432665,-0.444819,0.771771,-320.556,-5906.11,1712.65,0.385816,-0.714018,0.296788,0.503231,-73.4735,-6040.12,1695.1,-0.168568,-0.193724,-0.758514,0.598926,-410.617,-6177.46,1732.61,-0.179149,-0.356105,-0.458885,0.794053,561.65,-5800.06,1707.74
1164,0,-0.102484,-0.386912,-0.273879,0.874521,-34.7183,-5354.71,1629.17,0.607188,-0.337871,0.71876,0.0234473,-349.612,-5744.27,1683.93,-0.350176,-0.238701,-0.282979,0.860419,718.067,-5578.58,1649.71,-0.0174027,-0.239273,-0.386769,0.890424,791.255,-5462.84,1611.57,-0.336437,-0.34582,-0.675486,0.557617,378.666,-5947.9,1687.93,-0.133035,-0.329675,0.121546,0.926738,-109.447,-5445.02,1650.39,-0.138557,-0.432428,-0.448484,0.769851,-320.609,-5906.24,1712.57,0.385589,-0.712549,0.296794,0.505478,-73.4072,-6039.74,1694.89,-0.167738,-0.192938,-0.758501,0.599429,-410.573,-6177.42,1732.54,-0.182075,-0.352293,-0.458188,0.795488,561.786,-5800.07,1707.84
1165,0,-0.103324,-0.380607,-0.275505,0.876675,-34.526,-5354.75,1629.15,0.610188,-0.33852,0.715709,0.0289228,-349.691,-5744.19,1684.46,-0.350045,-0.237786,-0.283322,0.860613,718.11,-5578.65,1649.75,-0.0169008,-0.242056,-0.382893,0.891356,790.974,-5463.1,1611.75,-0.343642,-0.340249,-0.670142,0.563071,379.506,-5948.03,1688.34,-0.131995,-0.322414,0.121861,0.929396,-109.104,-5445.24,1650.21,-0.13781,-0.432013,-0.448216,0.770374,-320.694,-5906.38,1712.49,0.383998,-0.711761,0.301691,0.504901,-73.5101,-6039.39,1694.83,-0.167919,-0.192353,-0.759322,0.598527,-410.486,-6177.4,1732.5,-0.184128,-0.349568,-0.457568,0.796574,562.104,-5800.02,1708.05
1166,0,-0.102823,-0.378966,-0.277219,0.876905,-34.6262,-5354.72,1629.08,0.608866,-0.344394,0.713793,0.0342663,-350.218,-5744.21,1685.06,-0.349869,-0.237587,-0.284419,0.860378,718.086,-5578.7,1649.72,-0.0149944,-0.243821,-0.379067,0.892544,790.918,-5463.46,1612.03,-0.362521,-0.323991,-0.660482,0.572165,380.959,-5948.53,1688.87,-0.130867,-0.317143,0.12241,0.931295,-108.833,-5445.39,1650.46,-0.138133,-0.430413,-0.446113,0.77243,-320.602,-5906.37,1712.47,0.380215,-0.711094,0.302511,0.508202,-73.4609,-6039.11,1694.85,-0.170372,-0.193786,-0.75851,0.5984,-410.532,-6177.28,1732.47,-0.185075,-0.348195,-0.457011,0.797275,562.255,-5800.02,1708.11
1167,0,-0.101855,-0.377307,-0.279796,0.876915,-34.5528,-5354.73,1628.98,0.616074,-0.3458,0.706782,0.0365395,-349.467,-5743.35,1684.35,-0.349545,-0.237991,-0.285125,0.860164,717.993,-5578.71,1649.67,-0.0211932,-0.236884,-0.377294,0.895034,790.85,-5463.41,1611.76,-0.385569,-0.305163,-0.649487,0.579982,383.409,-5948.47,1690.39,-0.127499,-0.313803,0.124158,0.932661,-108.625,-5445.42,1650.83,-0.138466,-0.433616,-0.440315,0.773904,-320.907,-5906.51,1712.49,0.377816,-0.709677,0.302792,0.511791,-73.3469,-6038.92,1694.91,-0.169436,-0.194122,-0.760206,0.596402,-410.497,-6177.16,1732.51,-0.184921,-0.34874,-0.456594,0.797312,562.234,-5800,1708.06
1168,0,-0.105594,-0.366557,-0.282371,0.880201,-34.4433,-5354.98,1628.68,0.607958,-0.346491,0.713558,0.0341471,-349.74,-5742.83,1684,-0.349045,-0.237803,-0.285707,0.860226,717.988,-5578.75,1649.71,-0.0241431,-0.239919,-0.372224,0.896273,790.714,-5463.16,1611.85,-0.394102,-0.298008,-0.644563,0.583449,385.104,-5948.59,1690.86,-0.125729,-0.318533,0.119924,0.931852,-108.712,-5445.42,1651.23,-0.139009,-0.437347,-0.433701,0.775441,-321.032,-5906.6,1712.39,0.383957,-0.708639,0.302913,0.508579,-73.2522,-6038.26,1694.97,-0.168842,-0.194635,-0.761137,0.595214,-410.487,-6177.13,1732.55,-0.185364,-0.348252,-0.455838,0.797855,562.257,-5800.03,1708.04
1169,0,-0.100441,-0.377305,-0.284481,0.87557,-34.863,-5354.69,1628.56,0.603873,-0.339876,0.720283,0.0318485,-349.934,-5742.31,1683.63,-0.349246,-0.23495,-0.283895,0.861527,718.042,-5578.78,1649.82,-0.0257494,-0.241765,-0.369339,0.896925,790.589,-5463.06,1611.84,-0.385094,-0.305643,-0.645031,0.584995,385.247,-5948.72,1690.81,-0.12654,-0.322926,0.116945,0.930608,-108.713,-5445.28,1651.78,-0.139651,-0.435527,-0.433298,0.776573,-320.963,-5906.72,1712.57,0.380003,-0.706723,0.292349,0.520261,-73.2254,-6037.88,1695.17,-0.170354,-0.195516,-0.760443,0.595381,-410.485,-6177.1,1732.57,-0.185538,-0.347996,-0.455512,0.798112,562.423,-5800.08,1707.92
1170,0,-0.0997211,-0.380307,-0.284862,0.874229,-34.8885,-5354.69,1628.52,0.600074,-0.338852,0.724038,0.0293192,-350.161,-5742.2,1683.71,-0.348596,-0.239433,-0.284855,0.860238,717.679,-5578.72,1649.7,-0.0281892,-0.243145,-0.367249,0.897337,790.358,-5463.04,1611.76,-0.329689,-0.348736,-0.658315,0.579922,381.811,-5949.6,1688.54,-0.128615,-0.330221,0.113067,0.928239,-108.985,-5444.99,1652.35,-0.139635,-0.435387,-0.432218,0.777256,-320.964,-5906.83,1712.57,0.378682,-0.702992,0.291669,0.526623,-73.3307,-6037.28,1694.93,-0.170413,-0.196327,-0.760251,0.595344,-410.429,-6176.96,1732.66,-0.184651,-0.34948,-0.454969,0.797979,562.342,-5800.17,1707.85
1171,0,-0.100357,-0.38097,-0.284875,0.873863,-35.0673,-5354.68,1628.5,0.582874,-0.330162,0.742326,0.0142524,-349.744,-5741.95,1685.4,-0.347962,-0.23635,-0.285974,0.860976,717.897,-5578.69,1649.91,-0.0297759,-0.246475,-0.364762,0.897392,790.095,-5462.78,1611.71,-0.286612,-0.382424,-0.671627,0.566147,376.891,-5950.22,1685.96,,,,,,,,-0.137877,-0.431233,-0.437801,0.776761,-320.709,-5906.96,1712.51,0.37222,-0.708739,0.29263,0.52298,-73.1061,-6037.91,1694.41,-0.170168,-0.196692,-0.761684,0.593458,-410.358,-6176.84,1732.71,-0.185436,-0.348675,-0.454894,0.798192,562.58,-5800.17,1707.8
1172,0,-0.105174,-0.369253,-0.287931,0.877318,-34.7212,-5354.95,1628.63,0.553804,-0.301255,0.776052,-0.0170212,-349.104,-5743.8,1689.94,-0.348507,-0.238042,-0.285956,0.860295,717.795,-5578.61,1649.94,-0.0302109,-0.249848,-0.363036,0.897144,790.068,-5462.65,1611.74,-0.243183,-0.412724,-0.683186,0.551161,374.54,-5948.64,1682.6,,,,,,,,-0.135141,-0.430731,-0.442337,0.774949,-320.732,-5907.05,1712.46,0.377085,-0.709627,0.298401,0.514969,-73.2543,-6038.25,1694.11,-0.169039,-0.195785,-0.76319,0.592145,-410.283,-6176.85,1732.69,-0.185669,-0.353709,-0.452502,0.797282,562.375,-5799.85,1707.76
1173,0,-0.100024,-0.381444,-0.287133,0.872955,-35.0673,-5354.65,1628.76,0.688107,-0.216542,0.687988,0.0793102,-347.18,-5744.9,1691.24,-0.348783,-0.238531,-0.287388,0.859571,717.758,-5578.57,1650.01,-0.0316473,-0.25387,-0.360771,0.896879,789.962,-5462.43,1611.75,,,,,,,,,,,,,,,-0.13182,-0.430762,-0.444929,0.774019,-320.775,-5907.13,1712.49,0.377022,-0.717182,0.312547,0.495801,-73.4328,-6039.17,1693.79,-0.169198,-0.195071,-0.762548,0.593161,-410.212,-6176.8,1732.66,-0.189319,-0.350095,-0.45188,0.798371,562.764,-5800.13,1707.84
1174,0,-0.10051,-0.384031,-0.284741,0.872548,-34.9821,-5354.56,1628.98,0.684459,-0.21602,0.693201,0.0657584,-346.764,-5745.72,1689.94,-0.35157,-0.237205,-0.285052,0.85958,717.809,-5578.73,1650.14,-0.0331394,-0.257808,-0.358634,0.896559,790.029,-5462.37,1611.84,,,,,,,,,,,,,,,-0.130213,-0.435837,-0.446265,0.770674,-320.43,-5907.24,1712.37,0.372289,-0.721605,0.319929,0.488193,-73.1733,-6039.94,1693.72,-0.168926,-0.194874,-0.763502,0.592075,-410.182,-6176.73,1732.63,-0.189579,-0.351812,-0.450862,0.79813,562.703,-5799.97,1707.95
1175,0,-0.101979,-0.387924,-0.282329,0.871439,-35.0829,-5354.52,1629.21,0.673922,-0.21209,0.704365,0.0686813,-347.61,-5745.91,1688.06,-0.356478,-0.237337,-0.282768,0.858276,717.846,-5578.95,1650.16,-0.0348842,-0.259909,-0.357483,0.896346,790.102,-5462.34,1611.86,,,,,,,,,,,,,,,-0.127867,-0.438611,-0.448057,0.76845,-320.461,-5907.22,1712.47,0.383632,-0.717833,0.308751,0.492154,-73.0101,-6041,1693.44,-0.17061,-0.195446,-0.762273,0.592987,-410.199,-6176.72,1732.68,-0.190576,-0.351891,-0.451056,0.797748,562.579,-5800.1,1707.88
1176,0,-0.102742,-0.3985,-0.282444,0.866526,-35.6212,-5354.4,1629.35,0.669269,-0.215111,0.70878,0.0586281,-347.797,-5746.47,1686.95,-0.36307,-0.23346,-0.27182,0.860111,717.71,-5579.02,1650.08,-0.0335332,-0.269805,-0.351191,0.895961,789.434,-5461.78,1611.57,,,,,,,,,,,,,,,-0.130016,-0.431797,-0.44655,0.772813,-320.721,-5907.28,1712.52,0.388867,-0.722472,0.313994,0.477729,-72.9933,-6041.99,1693.56,-0.171384,-0.195307,-0.761375,0.593961,-410.223,-6176.69,1732.75,-0.191459,-0.350226,-0.451405,0.798072,562.63,-5800.18,1707.92
1177,0,-0.101396,-0.40324,-0.282632,0.864428,-35.5891,-5354.37,1629.39,0.66714,-0.213164,0.711441,0.0577678,-347.981,-5746.73,1686.18,-0.363551,-0.231354,-0.272129,0.860379,717.854,-5579.04,1650.2,-0.0401228,-0.269434,-0.348879,0.896704,790.066,-5462.21,1611.6,,,,,,,,,,,,,,,-0.132582,-0.43033,-0.447188,0.772826,-320.633,-5907.39,1712.42,0.38746,-0.728962,0.312413,0.469986,-72.746,-6043.21,1693.34,-0.17147,-0.195782,-0.760342,0.595102,-410.261,-6176.67,1732.81,-0.191353,-0.349724,-0.452136,0.797903,562.665,-5800.25,1707.91
1178,0,-0.102999,-0.403931,-0.28359,0.863602,-35.5935,-5354.29,1629.62,0.669965,-0.212425,0.708876,0.0593044,-347.942,-5746.72,1686.05,-0.36194,-0.234694,-0.273151,0.859829,717.934,-5578.89,1650.24,-0.0419973,-0.272366,-0.345892,0.89689,789.953,-5462.22,1611.29,,,,,,,,,,,,,,,-0.130221,-0.429694,-0.446464,0.774,-320.584,-5907.36,1712.43,0.389089,-0.732275,0.309412,0.465454,-72.656,-6044.07,1693.22,-0.169065,-0.196723,-0.762918,0.592176,-410.293,-6176.55,1732.85,-0.191363,-0.349896,-0.452216,0.797781,562.655,-5800.31,1707.89
1179,0,-0.103438,-0.411833,-0.281706,0.860428,-35.7957,-5354.12,1629.19,0.67149,-0.213307,0.707074,0.0604006,-347.995,-5746.71,1686.33,-0.354386,-0.243652,-0.290989,0.854617,717.766,-5578.53,1650.15,-0.0415851,-0.279983,-0.337799,0.897648,789.498,-5462.05,1610.86,,,,,,,,,,,,,,,-0.128577,-0.43022,-0.451556,0.771022,-320.624,-5907.47,1712.19,0.397687,-0.7358,0.31039,0.451776,-72.6538,-6045.26,1693.16,-0.167783,-0.198241,-0.763853,0.590829,-410.321,-6176.56,1732.92,-0.191396,-0.349001,-0.452134,0.798211,562.66,-5800.36,1707.82
1180,0,-0.103864,-0.405608,-0.280735,0.863645,-35.7326,-5354.12,1629.19,0.672917,-0.216553,0.705126,0.0555378,-348.016,-5746.66,1686.82,-0.351739,-0.24142,-0.288597,0.857151,717.738,-5578.17,1650.09,-0.0428833,-0.2831,-0.332443,0.898608,789.427,-5461.97,1610.65,,,,,,,,,,,,,,,-0.127922,-0.429449,-0.452892,0.770778,-320.587,-5907.51,1712.1,0.398874,-0.740266,0.310639,0.443181,-72.4663,-6045.99,1693.02,-0.167821,-0.197744,-0.762529,0.592691,-410.218,-6176.64,1732.94,-0.190499,-0.349606,-0.452057,0.798205,562.718,-5800.4,1707.78
